{"learner":{"attributes":{"best_iteration":"99","best_ntree_limit":"100","scikit_learn":"{\"use_label_encoder\": null, \"n_estimators\": 100, \"objective\": \"multi:softmax\", \"max_depth\": null, \"max_leaves\": null, \"max_bin\": null, \"grow_policy\": null, \"learning_rate\": null, \"verbosity\": null, \"booster\": null, \"tree_method\": null, \"gamma\": null, \"min_child_weight\": null, \"max_delta_step\": null, \"subsample\": null, \"sampling_method\": null, \"colsample_bytree\": null, \"colsample_bylevel\": null, \"colsample_bynode\": null, \"reg_alpha\": null, \"reg_lambda\": null, \"scale_pos_weight\": null, \"base_score\": null, \"missing\": NaN, \"num_parallel_tree\": null, \"random_state\": null, \"n_jobs\": null, \"monotone_constraints\": null, \"interaction_constraints\": null, \"importance_type\": null, \"gpu_id\": null, \"validate_parameters\": null, \"predictor\": null, \"enable_categorical\": false, \"feature_types\": null, \"max_cat_to_onehot\": null, \"max_cat_threshold\": null, \"eval_metric\": null, \"early_stopping_rounds\": null, \"callbacks\": null, \"kwargs\": {\"num_class\": 34}, \"classes_\": [0, 1, 2, 3, 4, 5, 6, 7, 8, 9, 10, 11, 12, 13, 14, 15, 16, 17, 18, 19, 20, 21, 22, 23, 24, 25, 26, 27, 28, 29, 30], \"n_classes_\": 31, \"_estimator_type\": \"classifier\"}"},"feature_names":[],"feature_types":[],"gradient_booster":{"model":{"gbtree_model_param":{"num_parallel_tree":"1","num_trees":"3100","size_leaf_vector":"0"},"tree_info":[0,1,2,3,4,5,6,7,8,9,10,11,12,13,14,15,16,17,18,19,20,21,22,23,24,25,26,27,28,29,30,0,1,2,3,4,5,6,7,8,9,10,11,12,13,14,15,16,17,18,19,20,21,22,23,24,25,26,27,28,29,30,0,1,2,3,4,5,6,7,8,9,10,11,12,13,14,15,16,17,18,19,20,21,22,23,24,25,26,27,28,29,30,0,1,2,3,4,5,6,7,8,9,10,11,12,13,14,15,16,17,18,19,20,21,22,23,24,25,26,27,28,29,30,0,1,2,3,4,5,6,7,8,9,10,11,12,13,14,15,16,17,18,19,20,21,22,23,24,25,26,27,28,29,30,0,1,2,3,4,5,6,7,8,9,10,11,12,13,14,15,16,17,18,19,20,21,22,23,24,25,26,27,28,29,30,0,1,2,3,4,5,6,7,8,9,10,11,12,13,14,15,16,17,18,19,20,21,22,23,24,25,26,27,28,29,30,0,1,2,3,4,5,6,7,8,9,10,11,12,13,14,15,16,17,18,19,20,21,22,23,24,25,26,27,28,29,30,0,1,2,3,4,5,6,7,8,9,10,11,12,13,14,15,16,17,18,19,20,21,22,23,24,25,26,27,28,29,30,0,1,2,3,4,5,6,7,8,9,10,11,12,13,14,15,16,17,18,19,20,21,22,23,24,25,26,27,28,29,30,0,1,2,3,4,5,6,7,8,9,10,11,12,13,14,15,16,17,18,19,20,21,22,23,24,25,26,27,28,29,30,0,1,2,3,4,5,6,7,8,9,10,11,12,13,14,15,16,17,18,19,20,21,22,23,24,25,26,27,28,29,30,0,1,2,3,4,5,6,7,8,9,10,11,12,13,14,15,16,17,18,19,20,21,22,23,24,25,26,27,28,29,30,0,1,2,3,4,5,6,7,8,9,10,11,12,13,14,15,16,17,18,19,20,21,22,23,24,25,26,27,28,29,30,0,1,2,3,4,5,6,7,8,9,10,11,12,13,14,15,16,17,18,19,20,21,22,23,24,25,26,27,28,29,30,0,1,2,3,4,5,6,7,8,9,10,11,12,13,14,15,16,17,18,19,20,21,22,23,24,25,26,27,28,29,30,0,1,2,3,4,5,6,7,8,9,10,11,12,13,14,15,16,17,18,19,20,21,22,23,24,25,26,27,28,29,30,0,1,2,3,4,5,6,7,8,9,10,11,12,13,14,15,16,17,18,19,20,21,22,23,24,25,26,27,28,29,30,0,1,2,3,4,5,6,7,8,9,10,11,12,13,14,15,16,17,18,19,20,21,22,23,24,25,26,27,28,29,30,0,1,2,3,4,5,6,7,8,9,10,11,12,13,14,15,16,17,18,19,20,21,22,23,24,25,26,27,28,29,30,0,1,2,3,4,5,6,7,8,9,10,11,12,13,14,15,16,17,18,19,20,21,22,23,24,25,26,27,28,29,30,0,1,2,3,4,5,6,7,8,9,10,11,12,13,14,15,16,17,18,19,20,21,22,23,24,25,26,27,28,29,30,0,1,2,3,4,5,6,7,8,9,10,11,12,13,14,15,16,17,18,19,20,21,22,23,24,25,26,27,28,29,30,0,1,2,3,4,5,6,7,8,9,10,11,12,13,14,15,16,17,18,19,20,21,22,23,24,25,26,27,28,29,30,0,1,2,3,4,5,6,7,8,9,10,11,12,13,14,15,16,17,18,19,20,21,22,23,24,25,26,27,28,29,30,0,1,2,3,4,5,6,7,8,9,10,11,12,13,14,15,16,17,18,19,20,21,22,23,24,25,26,27,28,29,30,0,1,2,3,4,5,6,7,8,9,10,11,12,13,14,15,16,17,18,19,20,21,22,23,24,25,26,27,28,29,30,0,1,2,3,4,5,6,7,8,9,10,11,12,13,14,15,16,17,18,19,20,21,22,23,24,25,26,27,28,29,30,0,1,2,3,4,5,6,7,8,9,10,11,12,13,14,15,16,17,18,19,20,21,22,23,24,25,26,27,28,29,30,0,1,2,3,4,5,6,7,8,9,10,11,12,13,14,15,16,17,18,19,20,21,22,23,24,25,26,27,28,29,30,0,1,2,3,4,5,6,7,8,9,10,11,12,13,14,15,16,17,18,19,20,21,22,23,24,25,26,27,28,29,30,0,1,2,3,4,5,6,7,8,9,10,11,12,13,14,15,16,17,18,19,20,21,22,23,24,25,26,27,28,29,30,0,1,2,3,4,5,6,7,8,9,10,11,12,13,14,15,16,17,18,19,20,21,22,23,24,25,26,27,28,29,30,0,1,2,3,4,5,6,7,8,9,10,11,12,13,14,15,16,17,18,19,20,21,22,23,24,25,26,27,28,29,30,0,1,2,3,4,5,6,7,8,9,10,11,12,13,14,15,16,17,18,19,20,21,22,23,24,25,26,27,28,29,30,0,1,2,3,4,5,6,7,8,9,10,11,12,13,14,15,16,17,18,19,20,21,22,23,24,25,26,27,28,29,30,0,1,2,3,4,5,6,7,8,9,10,11,12,13,14,15,16,17,18,19,20,21,22,23,24,25,26,27,28,29,30,0,1,2,3,4,5,6,7,8,9,10,11,12,13,14,15,16,17,18,19,20,21,22,23,24,25,26,27,28,29,30,0,1,2,3,4,5,6,7,8,9,10,11,12,13,14,15,16,17,18,19,20,21,22,23,24,25,26,27,28,29,30,0,1,2,3,4,5,6,7,8,9,10,11,12,13,14,15,16,17,18,19,20,21,22,23,24,25,26,27,28,29,30,0,1,2,3,4,5,6,7,8,9,10,11,12,13,14,15,16,17,18,19,20,21,22,23,24,25,26,27,28,29,30,0,1,2,3,4,5,6,7,8,9,10,11,12,13,14,15,16,17,18,19,20,21,22,23,24,25,26,27,28,29,30,0,1,2,3,4,5,6,7,8,9,10,11,12,13,14,15,16,17,18,19,20,21,22,23,24,25,26,27,28,29,30,0,1,2,3,4,5,6,7,8,9,10,11,12,13,14,15,16,17,18,19,20,21,22,23,24,25,26,27,28,29,30,0,1,2,3,4,5,6,7,8,9,10,11,12,13,14,15,16,17,18,19,20,21,22,23,24,25,26,27,28,29,30,0,1,2,3,4,5,6,7,8,9,10,11,12,13,14,15,16,17,18,19,20,21,22,23,24,25,26,27,28,29,30,0,1,2,3,4,5,6,7,8,9,10,11,12,13,14,15,16,17,18,19,20,21,22,23,24,25,26,27,28,29,30,0,1,2,3,4,5,6,7,8,9,10,11,12,13,14,15,16,17,18,19,20,21,22,23,24,25,26,27,28,29,30,0,1,2,3,4,5,6,7,8,9,10,11,12,13,14,15,16,17,18,19,20,21,22,23,24,25,26,27,28,29,30,0,1,2,3,4,5,6,7,8,9,10,11,12,13,14,15,16,17,18,19,20,21,22,23,24,25,26,27,28,29,30,0,1,2,3,4,5,6,7,8,9,10,11,12,13,14,15,16,17,18,19,20,21,22,23,24,25,26,27,28,29,30,0,1,2,3,4,5,6,7,8,9,10,11,12,13,14,15,16,17,18,19,20,21,22,23,24,25,26,27,28,29,30,0,1,2,3,4,5,6,7,8,9,10,11,12,13,14,15,16,17,18,19,20,21,22,23,24,25,26,27,28,29,30,0,1,2,3,4,5,6,7,8,9,10,11,12,13,14,15,16,17,18,19,20,21,22,23,24,25,26,27,28,29,30,0,1,2,3,4,5,6,7,8,9,10,11,12,13,14,15,16,17,18,19,20,21,22,23,24,25,26,27,28,29,30,0,1,2,3,4,5,6,7,8,9,10,11,12,13,14,15,16,17,18,19,20,21,22,23,24,25,26,27,28,29,30,0,1,2,3,4,5,6,7,8,9,10,11,12,13,14,15,16,17,18,19,20,21,22,23,24,25,26,27,28,29,30,0,1,2,3,4,5,6,7,8,9,10,11,12,13,14,15,16,17,18,19,20,21,22,23,24,25,26,27,28,29,30,0,1,2,3,4,5,6,7,8,9,10,11,12,13,14,15,16,17,18,19,20,21,22,23,24,25,26,27,28,29,30,0,1,2,3,4,5,6,7,8,9,10,11,12,13,14,15,16,17,18,19,20,21,22,23,24,25,26,27,28,29,30,0,1,2,3,4,5,6,7,8,9,10,11,12,13,14,15,16,17,18,19,20,21,22,23,24,25,26,27,28,29,30,0,1,2,3,4,5,6,7,8,9,10,11,12,13,14,15,16,17,18,19,20,21,22,23,24,25,26,27,28,29,30,0,1,2,3,4,5,6,7,8,9,10,11,12,13,14,15,16,17,18,19,20,21,22,23,24,25,26,27,28,29,30,0,1,2,3,4,5,6,7,8,9,10,11,12,13,14,15,16,17,18,19,20,21,22,23,24,25,26,27,28,29,30,0,1,2,3,4,5,6,7,8,9,10,11,12,13,14,15,16,17,18,19,20,21,22,23,24,25,26,27,28,29,30,0,1,2,3,4,5,6,7,8,9,10,11,12,13,14,15,16,17,18,19,20,21,22,23,24,25,26,27,28,29,30,0,1,2,3,4,5,6,7,8,9,10,11,12,13,14,15,16,17,18,19,20,21,22,23,24,25,26,27,28,29,30,0,1,2,3,4,5,6,7,8,9,10,11,12,13,14,15,16,17,18,19,20,21,22,23,24,25,26,27,28,29,30,0,1,2,3,4,5,6,7,8,9,10,11,12,13,14,15,16,17,18,19,20,21,22,23,24,25,26,27,28,29,30,0,1,2,3,4,5,6,7,8,9,10,11,12,13,14,15,16,17,18,19,20,21,22,23,24,25,26,27,28,29,30,0,1,2,3,4,5,6,7,8,9,10,11,12,13,14,15,16,17,18,19,20,21,22,23,24,25,26,27,28,29,30,0,1,2,3,4,5,6,7,8,9,10,11,12,13,14,15,16,17,18,19,20,21,22,23,24,25,26,27,28,29,30,0,1,2,3,4,5,6,7,8,9,10,11,12,13,14,15,16,17,18,19,20,21,22,23,24,25,26,27,28,29,30,0,1,2,3,4,5,6,7,8,9,10,11,12,13,14,15,16,17,18,19,20,21,22,23,24,25,26,27,28,29,30,0,1,2,3,4,5,6,7,8,9,10,11,12,13,14,15,16,17,18,19,20,21,22,23,24,25,26,27,28,29,30,0,1,2,3,4,5,6,7,8,9,10,11,12,13,14,15,16,17,18,19,20,21,22,23,24,25,26,27,28,29,30,0,1,2,3,4,5,6,7,8,9,10,11,12,13,14,15,16,17,18,19,20,21,22,23,24,25,26,27,28,29,30,0,1,2,3,4,5,6,7,8,9,10,11,12,13,14,15,16,17,18,19,20,21,22,23,24,25,26,27,28,29,30,0,1,2,3,4,5,6,7,8,9,10,11,12,13,14,15,16,17,18,19,20,21,22,23,24,25,26,27,28,29,30,0,1,2,3,4,5,6,7,8,9,10,11,12,13,14,15,16,17,18,19,20,21,22,23,24,25,26,27,28,29,30,0,1,2,3,4,5,6,7,8,9,10,11,12,13,14,15,16,17,18,19,20,21,22,23,24,25,26,27,28,29,30,0,1,2,3,4,5,6,7,8,9,10,11,12,13,14,15,16,17,18,19,20,21,22,23,24,25,26,27,28,29,30,0,1,2,3,4,5,6,7,8,9,10,11,12,13,14,15,16,17,18,19,20,21,22,23,24,25,26,27,28,29,30,0,1,2,3,4,5,6,7,8,9,10,11,12,13,14,15,16,17,18,19,20,21,22,23,24,25,26,27,28,29,30,0,1,2,3,4,5,6,7,8,9,10,11,12,13,14,15,16,17,18,19,20,21,22,23,24,25,26,27,28,29,30,0,1,2,3,4,5,6,7,8,9,10,11,12,13,14,15,16,17,18,19,20,21,22,23,24,25,26,27,28,29,30,0,1,2,3,4,5,6,7,8,9,10,11,12,13,14,15,16,17,18,19,20,21,22,23,24,25,26,27,28,29,30,0,1,2,3,4,5,6,7,8,9,10,11,12,13,14,15,16,17,18,19,20,21,22,23,24,25,26,27,28,29,30,0,1,2,3,4,5,6,7,8,9,10,11,12,13,14,15,16,17,18,19,20,21,22,23,24,25,26,27,28,29,30,0,1,2,3,4,5,6,7,8,9,10,11,12,13,14,15,16,17,18,19,20,21,22,23,24,25,26,27,28,29,30,0,1,2,3,4,5,6,7,8,9,10,11,12,13,14,15,16,17,18,19,20,21,22,23,24,25,26,27,28,29,30,0,1,2,3,4,5,6,7,8,9,10,11,12,13,14,15,16,17,18,19,20,21,22,23,24,25,26,27,28,29,30,0,1,2,3,4,5,6,7,8,9,10,11,12,13,14,15,16,17,18,19,20,21,22,23,24,25,26,27,28,29,30,0,1,2,3,4,5,6,7,8,9,10,11,12,13,14,15,16,17,18,19,20,21,22,23,24,25,26,27,28,29,30,0,1,2,3,4,5,6,7,8,9,10,11,12,13,14,15,16,17,18,19,20,21,22,23,24,25,26,27,28,29,30,0,1,2,3,4,5,6,7,8,9,10,11,12,13,14,15,16,17,18,19,20,21,22,23,24,25,26,27,28,29,30,0,1,2,3,4,5,6,7,8,9,10,11,12,13,14,15,16,17,18,19,20,21,22,23,24,25,26,27,28,29,30,0,1,2,3,4,5,6,7,8,9,10,11,12,13,14,15,16,17,18,19,20,21,22,23,24,25,26,27,28,29,30,0,1,2,3,4,5,6,7,8,9,10,11,12,13,14,15,16,17,18,19,20,21,22,23,24,25,26,27,28,29,30,0,1,2,3,4,5,6,7,8,9,10,11,12,13,14,15,16,17,18,19,20,21,22,23,24,25,26,27,28,29,30],"trees":[{"base_weights":[5.0437512E0,2.730661E0,1.5335265E1,1.1772566E0,1.1045955E1,5.4674464E-1,1.3916361E1,1.4072462E1,5.1624174E0,2.8705764E-1,1.3097864E1,1.4681751E1,8.668246E0,2.9052794E0,1.2579886E1,-2.8775742E-2,8.595443E0,1.2276564E1,-1.0760132E-2,6.375404E0,4.7081524E-1,-1.9559313E-1,1.1661264E1,1.3514198E1,-5.3438015E-2,1.0944843E1,2.1553342E0,2.1057353E0,-8.352457E-2],"categories":[],"categories_nodes":[],"categories_segments":[],"categories_sizes":[],"default_left":[1,1,0,1,1,1,0,1,1,1,0,0,1,1,0,1,1,0,0,1,1,0,0,0,0,0,0,0,0],"id":0,"left_children":[1,3,-1,5,7,9,-1,11,13,15,-1,-1,17,19,-1,21,23,-1,-1,25,27,-1,-1,-1,-1,-1,-1,-1,-1],"loss_changes":[1.2191693E4,5.4226396E3,0E0,2.849374E3,1.1047163E3,1.1042913E3,0E0,1.4588867E1,3.6591046E2,8.769227E2,0E0,0E0,2.1328711E2,1.6367943E2,0E0,6.318757E2,5.2136035E2,0E0,0E0,1.3174054E2,1.1663556E1,0E0,0E0,0E0,0E0,0E0,0E0,0E0,0E0],"parents":[2147483647,0,0,1,1,3,3,4,4,5,5,7,7,8,8,9,9,12,12,13,13,15,15,16,16,19,19,20,20],"right_children":[2,4,-1,6,8,10,-1,12,14,16,-1,-1,18,20,-1,22,24,-1,-1,26,28,-1,-1,-1,-1,-1,-1,-1,-1],"split_conditions":[1.4E0,5.997095E1,4.6005797E0,9.036406E0,1.745655E1,2.1950002E0,4.1749086E0,2.81285E1,7E-2,6.9299996E-1,3.9293594E0,4.4045258E0,7.1821304E1,4.5E-2,3.773966E0,1.008E1,1.2E-1,3.6829693E0,-3.2280397E-3,6.867015E1,6.343E1,-5.867794E-2,3.4983795E0,4.05426E0,-1.6031405E-2,3.2834532E0,6.466003E-1,6.317206E-1,-2.5057372E-2],"split_indices":[48,0,0,22,4,32,0,24,32,50,0,0,0,24,0,24,14,0,0,0,0,0,0,0,0,0,0,0,0],"split_type":[0,0,0,0,0,0,0,0,0,0,0,0,0,0,0,0,0,0,0,0,0,0,0,0,0,0,0,0,0],"sum_hessian":[5.129032E2,4.1981268E2,9.309053E1,3.5469302E2,6.511967E1,3.389594E2,1.5733611E1,4.2081165E1,2.3038502E1,3.3309055E2,5.8688865E0,3.6274715E1,5.806452E0,1.873049E1,4.3080125E0,3.2185223E2,1.1238294E1,3.8085327E0,1.9979188E0,7.055151E0,1.1675338E1,3.1829346E2,3.5587928E0,6.805411E0,4.4328823E0,2.6222684E0,4.4328823E0,2.2476587E0,9.42768E0],"tree_param":{"num_deleted":"0","num_feature":"255","num_nodes":"29","size_leaf_vector":"0"}},{"base_weights":[6.401984E-1,-3.120097E-1,1.4292077E1,-4.936051E-1,2.842779E0,1.48637E1,1.395768E-1,-5.067296E-1,2.0916286E0,-3.0201274E-1,1.2883848E1,-5.088998E-1,3.5213955E-2,4.4767833E-1,-4.8690125E-1,-3.7403044E-1,1.6744069E0],"categories":[],"categories_nodes":[],"categories_segments":[],"categories_sizes":[],"default_left":[1,1,1,1,1,0,0,1,0,1,0,0,0,1,0,0,0],"id":1,"left_children":[1,3,5,7,9,-1,-1,11,-1,13,-1,-1,-1,15,-1,-1,-1],"loss_changes":[6.684907E3,2.771804E2,2.6916846E2,1.6532799E1,8.3590247E2,0E0,0E0,5.525131E-1,0E0,3.1345396E0,0E0,0E0,0E0,5.347475E0,0E0,0E0,0E0],"parents":[2147483647,0,0,1,1,2,2,3,3,4,4,7,7,9,9,13,13],"right_children":[2,4,6,8,10,-1,-1,12,-1,14,-1,-1,-1,16,-1,-1,-1],"split_conditions":[3.7735E1,2.4595001E1,3.85E-1,3.6425003E1,2.059E1,4.4591103E0,4.1873038E-2,4.205E0,6.274886E-1,6.35E-1,3.8651545E0,-1.5266995E-1,1.0564187E-2,1.25E-1,-1.4607038E-1,-1.12209134E-1,5.023221E-1],"split_indices":[14,10,4,14,14,0,0,1,0,4,0,0,0,0,0,0,0],"split_type":[0,0,0,0,0,0,0,0,0,0,0,0,0,0,0,0,0],"sum_hessian":[5.129032E2,4.803746E2,3.2528618E1,4.5502603E2,2.5348595E1,3.1217482E1,1.3111342E0,4.535276E2,1.4984391E0,2.0041624E1,5.306972E0,4.517794E2,1.748179E0,3.683663E0,1.635796E1,2.6222684E0,1.0613943E0],"tree_param":{"num_deleted":"0","num_feature":"255","num_nodes":"17","size_leaf_vector":"0"}},{"base_weights":[6.946834E-1,-1.0186021E-1,5.5466332E0,-2.6905593E-1,5.3392816E0,-5.043158E-1,1.3367674E1,5.882186E-2,-5.0267285E-1,-4.5047325E-1,1.1535351E1,1.4303007E1,-3.443249E-1,-3.2789585E-1,1.2012933E0,-5.066097E-1,2.190813E-1,1.4573305E1,3.6148412E0,-4.5776695E-1,1.6478531E0,2.9565902E0,-3.0063972E-1,-5.1054937E-1,-5.847216E-2,-5.040015E-1,2.1828428E-1,-4.1576913E-1,3.6594698E0,4.1929874E0,-4.37867E-1,-4.9555716E-1,2.1595154E0,-5.145453E-1,-2.3425691E-1,-2.8690422E-1,2.190813E-1],"categories":[],"categories_nodes":[],"categories_segments":[],"categories_sizes":[],"default_left":[1,1,1,1,1,0,1,1,1,0,0,1,0,1,1,1,0,0,0,1,1,1,1,1,1,0,0,0,0,0,0,0,0,0,0,0,0],"id":2,"left_children":[1,3,5,7,9,-1,11,13,15,-1,-1,17,-1,19,21,23,-1,-1,-1,25,27,29,31,33,35,-1,-1,-1,-1,-1,-1,-1,-1,-1,-1,-1,-1],"loss_changes":[1.9866929E3,4.0391742E2,3.4372173E3,3.2980247E1,4.8006592E2,0E0,4.10917E2,7.986569E1,8.250389E-1,0E0,0E0,3.3000977E1,0E0,3.5438675E1,1.21378586E2,4.1194916E-1,0E0,0E0,0E0,4.098963E0,3.7033623E1,9.0669586E1,1.3315819E1,1.5319061E-1,2.7272224E-1,0E0,0E0,0E0,0E0,0E0,0E0,0E0,0E0,0E0,0E0,0E0,0E0],"parents":[2147483647,0,0,1,1,2,2,3,3,4,4,6,6,7,7,8,8,11,11,13,13,14,14,15,15,19,19,20,20,21,21,22,22,23,23,24,24],"right_children":[2,4,6,8,10,-1,12,14,16,-1,-1,18,-1,20,22,24,-1,-1,-1,26,28,30,32,34,36,-1,-1,-1,-1,-1,-1,-1,-1,-1,-1,-1,-1],"split_conditions":[2.4994999E1,5.95E-1,5.0045E1,8.355E0,1.535E1,-1.5129474E-1,3.71E0,2.25E-2,2.467E1,-1.3514198E-1,3.4606054E0,6.5E-2,-1.0329747E-1,2.9500002E-1,1.7050001E-1,2.77E0,6.5724395E-2,4.3719916E0,1.0844524E0,1.8565E1,4.8559998E1,6.575E0,1.654E1,2.2625E1,4.16E1,-1.5120046E-1,6.5485284E-2,-1.2473074E-1,1.097841E0,1.2578963E0,-1.313601E-1,-1.4866716E-1,6.478546E-1,-1.543636E-1,-7.027707E-2,-8.607127E-2,6.5724395E-2],"split_indices":[14,12,0,4,14,0,20,50,14,0,0,51,0,11,50,1,0,0,0,14,0,20,10,14,0,0,0,0,0,0,0,0,0,0,0,0,0],"split_type":[0,0,0,0,0,0,0,0,0,0,0,0,0,0,0,0,0,0,0,0,0,0,0,0,0,0,0,0,0,0,0,0,0,0,0,0,0],"sum_hessian":[5.129032E2,4.414152E2,7.148804E1,4.2917795E2,1.2237253E1,4.0832466E1,3.0655567E1,1.7887617E2,2.5030177E2,6.805411E0,5.431842E0,2.8657648E1,1.9979188E0,1.3417274E2,4.4703434E1,2.4924037E2,1.0613943E0,2.7596254E1,1.0613943E0,1.266181E2,7.5546308E0,2.0166492E1,2.4536942E1,2.4693028E2,2.3100936E0,1.18751305E2,7.8668056E0,4.1207075E0,3.433923E0,1.4609781E1,5.5567117E0,2.3475546E1,1.0613943E0,2.4255983E2,4.3704476E0,1.2486993E0,1.0613943E0],"tree_param":{"num_deleted":"0","num_feature":"255","num_nodes":"37","size_leaf_vector":"0"}},{"base_weights":[8.970561E-1,-7.27588E-2,8.420419E0,-3.6938912E-1,7.5206614E-1,-3.000848E-1,1.2886418E1,-4.3132132E-1,-5.812349E-3,6.4617367E0,-1.784663E-1,-4.9022946E-1,1.4376408E0,1.4083507E1,-3.9318576E-1,-5.046019E-1,-2.3403558E-1,-3.1451556E-1,3.7489924E0,1.0391726E1,-4.4408712E-1,4.1983864E-1,-4.5424998E-1,1.463307E1,1.5862753E0,-5.093277E-1,2.030488E-8,3.0740878E-1,-4.0917593E-1,-4.7918004E-1,6.01284E-1,6.525492E0,3.7874866E-1,5.4574037E-1,1.2986742E1,-1.9647115E-1,2.4027903E0,-4.809326E-1,3.4065938E-1,-5.1408225E-1,-3.207902E-1,-2.795804E-1,8.754616E-1,-2.2431257E-1,-5.0353163E-1,-5.0353163E-1,1.9745225E-1,-1.2914595E-1,2.5516903E0,1.1892984E0,-2.8690422E-1,2.228847E0,-4.1689697E-1,7.010601E0,7.0108616E-1,-4.9480203E-1,2.190813E-1],"categories":[],"categories_nodes":[],"categories_segments":[],"categories_sizes":[],"default_left":[1,1,1,1,1,1,1,1,1,1,1,0,0,1,0,1,1,1,1,1,0,1,1,0,0,1,0,1,1,1,1,0,0,1,0,1,1,1,0,0,0,0,0,0,0,0,0,0,0,0,0,0,0,0,0,0,0],"id":3,"left_children":[1,3,5,7,9,11,13,15,17,19,21,-1,-1,23,-1,25,27,29,31,33,-1,35,37,-1,-1,39,-1,41,43,45,47,-1,-1,49,-1,51,53,55,-1,-1,-1,-1,-1,-1,-1,-1,-1,-1,-1,-1,-1,-1,-1,-1,-1,-1,-1],"loss_changes":[3.7501885E3,1.1189864E2,2.2895908E3,7.5680428E0,6.440302E2,7.595443E0,6.229009E2,4.0349503E0,5.9076035E1,4.6553986E2,1.7518747E1,0E0,0E0,2.2164307E2,0E0,4.974327E-1,7.6806073E0,7.3873186E0,3.376072E1,2.7051172E2,0E0,4.160043E1,1.6986761E0,0E0,0E0,2.0336151E-2,0E0,6.927805E0,9.4453526E-1,7.6606846E-1,1.1182564E1,0E0,0E0,2.1149454E0,0E0,1.5148741E1,5.8246452E1,7.921696E-1,0E0,0E0,0E0,0E0,0E0,0E0,0E0,0E0,0E0,0E0,0E0,0E0,0E0,0E0,0E0,0E0,0E0,0E0,0E0],"parents":[2147483647,0,0,1,1,2,2,3,3,4,4,5,5,6,6,7,7,8,8,9,9,10,10,13,13,15,15,16,16,17,17,18,18,19,19,21,21,22,22,25,25,27,27,28,28,29,29,30,30,33,33,35,35,36,36,37,37],"right_children":[2,4,6,8,10,12,14,16,18,20,22,-1,-1,24,-1,26,28,30,32,34,-1,36,38,-1,-1,40,-1,42,44,46,48,-1,-1,50,-1,52,54,56,-1,-1,-1,-1,-1,-1,-1,-1,-1,-1,-1,-1,-1,-1,-1,-1,-1,-1,-1],"split_conditions":[1.3005E1,4.175E0,7.265E0,1.1934999E1,9.36E0,6.26E0,4.6805E1,9.649999E-3,5.3260002E1,4.604E1,1.25E-1,-1.4706884E-1,4.3129227E-1,1.66E1,-1.1795574E-1,3.79E0,6.8E-2,4.9665E1,1.1E-1,4.9515E1,-1.3322614E-1,3.36E0,3.5E-2,4.389921E0,4.7588262E-1,4.95E-1,6.091464E-9,3.15E-2,2.5E-2,9.5E-2,1.4500001E-1,1.9576477E0,1.136246E-1,7.94E0,3.8960228E0,1.167E1,1.56E1,7.545E0,1.0219782E-1,-1.5422468E-1,-9.623706E-2,-8.387413E-2,2.6263848E-1,-6.729378E-2,-1.510595E-1,-1.510595E-1,5.9235677E-2,-3.8743787E-2,7.6550716E-1,3.5678953E-1,-8.607127E-2,6.6865414E-1,-1.250691E-1,2.1031804E0,2.1032585E-1,-1.4844061E-1,6.5724395E-2],"split_indices":[20,20,14,10,4,14,48,50,0,48,24,0,0,4,0,20,50,0,2,0,0,22,16,0,0,5,0,50,0,23,22,0,0,4,0,4,4,22,0,0,0,0,0,0,0,0,0,0,0,0,0,0,0,0,0,0,0],"split_type":[0,0,0,0,0,0,0,0,0,0,0,0,0,0,0,0,0,0,0,0,0,0,0,0,0,0,0,0,0,0,0,0,0,0,0,0,0,0,0,0,0,0,0,0,0,0,0,0,0,0,0,0,0,0,0,0,0],"sum_hessian":[5.129032E2,4.5521332E2,5.7689907E1,3.3521332E2,1.2E2,1.9854319E1,3.7835587E1,2.862643E2,4.8949013E1,1.5983351E1,1.0401665E2,1.8543184E1,1.3111342E0,3.4651405E1,3.1841831E0,2.0759625E2,7.866805E1,4.6077003E1,2.8720083E0,9.864724E0,6.1186266E0,3.2653484E1,7.136317E1,3.3028095E1,1.623309E0,2.0566077E2,1.9354839E0,1.9042664E1,5.962539E1,3.9458897E1,6.6181064E0,1.0613943E0,1.810614E0,2.3100936E0,7.5546308E0,2.5598335E1,7.055151E0,6.942768E1,1.9354839E0,1.989178E2,6.742976E0,9.6149845E0,9.42768E0,2.1290323E1,3.8335068E1,3.8335068E1,1.1238294E0,5.494277E0,1.1238294E0,1.0613943E0,1.2486993E0,1.3735693E0,2.4224766E1,1.0613943E0,5.9937563E0,6.836629E1,1.0613943E0],"tree_param":{"num_deleted":"0","num_feature":"255","num_nodes":"57","size_leaf_vector":"0"}},{"base_weights":[2.6074952E-1,-3.6183605E-1,2.899609E0,-3.8005236E-1,1.614163E0,8.345441E-1,1.2428887E1,-4.2863297E-1,2.4195986E-2,-3.4065932E-1,3.6148412E0,-1.4374347E-1,3.918939E0,-2.931112E-1,1.3482528E1,-4.4332743E-1,2.2349608E-1,-2.714878E-1,3.7094822E0,-5.077495E-1,3.3261352E0,-4.6938387E-1,8.410572E0,1.4322387E1,1.9366035E0,-4.8796785E-1,-3.2275304E-1,-4.4993952E-1,2.644624E0,-4.494875E-1,8.0747455E-1,1.7705856E-1,5.494216E0,-3.913153E-1,7.3276644E0,1.1965321E1,-1.2496639E-1,-5.0284797E-1,1.9133467E-2,2.0140433E-1,-4.9667355E-1,2.190813E-1,-4.750007E-1,2.3846154E0,-4.0175885E-1,2.190813E-1,-3.3283967E-1],"categories":[],"categories_nodes":[],"categories_segments":[],"categories_sizes":[],"default_left":[1,1,1,1,1,1,1,1,1,0,0,1,1,0,1,1,1,1,1,0,1,0,1,0,0,1,1,0,0,1,1,0,0,0,0,0,1,0,0,0,0,0,0,0,0,0,0],"id":4,"left_children":[1,3,5,7,9,11,13,15,17,-1,-1,19,21,-1,23,25,27,29,31,-1,33,-1,35,-1,-1,37,39,-1,-1,41,43,-1,-1,-1,-1,-1,45,-1,-1,-1,-1,-1,-1,-1,-1,-1,-1],"loss_changes":[8.4534906E2,1.5612453E1,1.9222854E3,8.134781E0,1.6863102E1,2.4736107E2,2.3746167E2,3.6385956E0,5.0400963E1,0E0,0E0,8.133765E1,3.9285034E2,0E0,1.2847388E2,1.7886124E0,1.5545214E1,8.600928E0,2.0682709E1,0E0,9.3900444E1,0E0,2.9894482E2,0E0,0E0,1.9859619E0,9.275114E0,0E0,0E0,7.4306583E-1,1.3224407E1,0E0,0E0,0E0,0E0,0E0,3.498385E-1,0E0,0E0,0E0,0E0,0E0,0E0,0E0,0E0,0E0,0E0],"parents":[2147483647,0,0,1,1,2,2,3,3,4,4,5,5,6,6,7,7,8,8,11,11,12,12,14,14,15,15,16,16,17,17,18,18,20,20,22,22,25,25,26,26,29,29,30,30,36,36],"right_children":[2,4,6,8,10,12,14,16,18,-1,-1,20,22,-1,24,26,28,30,32,-1,34,-1,36,-1,-1,38,40,-1,-1,42,44,-1,-1,-1,-1,-1,46,-1,-1,-1,-1,-1,-1,-1,-1,-1,-1],"split_conditions":[1.9015E1,3.046E1,1.55E-1,1.6115002E1,1.5E0,2.42E0,6.45E-1,1.585E-1,1.4615E1,-1.021978E-1,1.0844524E0,1.1940001E1,5.5E-1,-8.793336E-2,4.7500002E-1,3.98E-2,2.1000001E-1,1.0075E1,2.05E-1,-1.5232486E-1,3.982E1,-1.4081517E-1,7.25E-1,4.296716E0,5.809811E-1,4.5E-2,1.5E-2,-1.3498186E-1,7.9338723E-1,4.05E1,7.5E-2,5.311757E-2,1.6482649E0,-1.173946E-1,2.1982994E0,3.5895963E0,5.0489998E1,-1.508544E-1,5.7400404E-3,6.0421303E-2,-1.4900208E-1,6.5724395E-2,-1.4250022E-1,7.1538466E-1,-1.2052766E-1,6.5724395E-2,-9.985191E-2],"split_indices":[4,20,12,4,2,10,20,51,14,0,0,14,20,0,22,50,8,14,15,0,0,0,22,0,0,16,0,0,0,0,24,0,0,0,0,0,0,0,0,0,0,0,0,0,0,0,0],"split_type":[0,0,0,0,0,0,0,0,0,0,0,0,0,0,0,0,0,0,0,0,0,0,0,0,0,0,0,0,0,0,0,0,0,0,0,0,0,0,0,0,0,0,0,0,0,0,0],"sum_hessian":[5.129032E2,4.15692E2,9.7211235E1,4.126951E2,2.9968781E0,8.079084E1,1.6420395E1,3.6836627E2,4.4328823E1,1.9354839E0,1.0613943E0,6.2060352E1,1.873049E1,1.3111342E0,1.51092615E1,3.6056192E2,7.8043704E0,4.189386E1,2.4349637E0,5.6940685E1,5.119667E0,9.927159E0,8.803329E0,1.3860562E1,1.2486993E0,2.609157E2,9.96462E1,6.742976E0,1.0613943E0,3.6462017E1,5.431842E0,1.1862643E0,1.2486993E0,3.1217482E0,1.9979188E0,5.9313216E0,2.8720083E0,2.5348595E2,7.429761E0,2.478668E1,7.485952E1,1.0613943E0,3.5400623E1,1.9354839E0,3.496358E0,1.0613943E0,1.810614E0],"tree_param":{"num_deleted":"0","num_feature":"255","num_nodes":"47","size_leaf_vector":"0"}},{"base_weights":[6.9857514E-1,-1.920574E-1,7.788089E0,-3.6336407E-1,2.1639225E0,-3.389296E-1,1.38164835E1,-4.7957605E-1,7.203446E-2,-4.9064514E-1,6.2729044E0,-4.954489E-1,1.6744069E0,2.030488E-8,1.4678247E1,-4.8819733E-1,3.238001E-1,2.3284295E0,-4.8256508E-1,9.317854E0,-4.0921876E-1,-5.1473904E-1,-3.7514117E-1,-3.5121626E-1,1.1892984E0,5.686506E0,-4.688373E-1,-4.958155E-1,2.190813E-1,1.1929521E1,4.9271526E0,-1.3640585E-2,-5.0619185E-1,-3.5121626E-1,9.132147E0],"categories":[],"categories_nodes":[],"categories_segments":[],"categories_sizes":[],"default_left":[1,1,1,1,1,1,1,1,1,0,1,0,0,0,0,1,1,1,1,1,0,0,1,0,0,0,0,0,0,0,1,0,0,0,0],"id":5,"left_children":[1,3,5,7,9,11,13,15,17,-1,19,-1,-1,-1,-1,21,23,25,27,29,-1,-1,31,-1,-1,-1,-1,-1,-1,-1,33,-1,-1,-1,-1],"loss_changes":[3.2463586E3,1.8544092E2,2.8158335E3,2.1658756E1,3.4291498E2,8.837588E0,3.9251953E2,2.4953842E0,1.1488344E2,0E0,2.5409259E2,0E0,0E0,0E0,0E0,8.0996704E-1,2.8622074E0,1.7275462E2,7.947445E-1,3.8601868E1,0E0,0E0,3.17875E0,0E0,0E0,0E0,0E0,0E0,0E0,0E0,1.11321E2,0E0,0E0,0E0,0E0],"parents":[2147483647,0,0,1,1,2,2,3,3,4,4,5,5,6,6,7,7,8,8,10,10,15,15,16,16,17,17,18,18,19,19,22,22,30,30],"right_children":[2,4,6,8,10,12,14,16,18,-1,20,-1,-1,-1,-1,22,24,26,28,30,-1,-1,32,-1,-1,-1,-1,-1,-1,-1,34,-1,-1,-1,-1],"split_conditions":[2.3415E1,7.3050003E0,5.995E0,1.7950001E-1,1.9420849E1,4.355E0,4.28618E1,6.0671854E0,1.55E-1,-1.4719355E-1,1.1823999E1,-1.4863467E-1,5.023221E-1,6.091464E-9,4.4034743E0,7.0000003E-4,1.8470001E1,4.85E-1,2.1645E1,1.9607449E1,-1.2276563E-1,-1.5442172E-1,1.5E-2,-1.0536488E-1,3.5678953E-1,1.7059518E0,-1.406512E-1,-1.4874466E-1,6.5724395E-2,3.5788562E0,7E-2,-4.092176E-3,-1.5185755E-1,-1.0536488E-1,2.739644E0],"split_indices":[4,22,20,50,4,20,0,22,10,0,22,0,0,0,0,50,4,50,4,4,0,0,0,0,0,0,0,0,0,0,24,0,0,0,0],"split_type":[0,0,0,0,0,0,0,0,0,0,0,0,0,0,0,0,0,0,0,0,0,0,0,0,0,0,0,0,0,0,0,0,0,0,0],"sum_hessian":[5.129032E2,4.5652444E2,5.6378773E1,4.2636838E2,3.0156088E1,2.4412071E1,3.1966702E1,3.36462E2,8.990635E1,1.885536E1,1.1300729E1,2.3350676E1,1.0613943E0,1.9354839E0,3.0031218E1,3.3327783E2,3.1841831E0,1.710718E1,7.279917E1,7.4921956E0,3.8085327E0,2.6703433E2,6.62435E1,2.1227887E0,1.0613943E0,7.3048906E0,9.802289E0,7.173777E1,1.0613943E0,3.621228E0,3.8709679E0,1.7918835E1,4.832466E1,2.1227887E0,1.748179E0],"tree_param":{"num_deleted":"0","num_feature":"255","num_nodes":"35","size_leaf_vector":"0"}},{"base_weights":[-3.9501598E-1,-2.403719E-2,-5.0281084E-1,-4.7941488E-1,1.8179226E0,-5.153655E-1,2.1595154E0,-5.0006264E-1,1.0330687E-1,3.5068736E0,-4.688373E-1,-5.1069176E-1,-2.5828752E-1,5.722648E-1,-3.2866338E-1,1.6167127E0,5.704308E0,1.5779734E-1,-4.0486374E-1,8.4234816E-1,1.8883541E0,1.3374627E0,6.148356E-2],"categories":[],"categories_nodes":[],"categories_segments":[],"categories_sizes":[],"default_left":[1,1,1,1,1,0,0,1,1,1,0,0,1,0,0,1,0,0,0,1,0,0,0],"id":6,"left_children":[1,3,5,7,9,-1,-1,11,13,15,-1,-1,17,-1,-1,19,-1,-1,-1,21,-1,-1,-1],"loss_changes":[2.0538696E1,9.880368E1,1.4420898E1,1.1875019E0,9.1833755E1,0E0,0E0,1.0283661E-1,1.0104014E0,4.705536E1,0E0,0E0,4.2188245E-1,0E0,0E0,2.350769E-1,0E0,0E0,0E0,1.4871695E0,0E0,0E0,0E0],"parents":[2147483647,0,0,1,1,2,2,3,3,4,4,7,7,8,8,9,9,12,12,15,15,19,19],"right_children":[2,4,6,8,10,-1,-1,12,14,16,-1,-1,18,-1,-1,20,-1,-1,-1,22,-1,-1,-1],"split_conditions":[1E-2,5.7E-2,9.5935E1,3.65E-2,4.4E-1,-1.5460965E-1,6.478546E-1,1.9E-2,4.05E-2,2.6999998E-1,-1.406512E-1,-1.5320754E-1,2.05E-2,1.7167944E-1,-9.859902E-2,9.15E-2,1.7112925E0,4.7339205E-2,-1.2145913E-1,7.0999995E-2,5.6650627E-1,4.0123883E-1,1.8445069E-2],"split_indices":[0,50,0,50,50,0,0,50,50,50,0,0,50,0,0,50,0,0,0,50,0,0,0],"split_type":[0,0,0,0,0,0,0,0,0,0,0,0,0,0,0,0,0,0,0,0,0,0,0],"sum_hessian":[5.129032E2,1.15754425E2,3.971488E2,9.34027E1,2.2351717E1,3.960874E2,1.0613943E0,9.034339E1,3.0593133E0,1.2549428E1,9.802289E0,8.5473465E1,4.8699274E0,1.3111342E0,1.748179E0,7.6795006E0,4.8699274E0,1.2486993E0,3.621228E0,3.0593133E0,4.6201873E0,1.4360042E0,1.623309E0],"tree_param":{"num_deleted":"0","num_feature":"255","num_nodes":"23","size_leaf_vector":"0"}},{"base_weights":[3.560982E-1,-9.271658E-2,1.4342621E1,-2.041478E-1,9.9498205E0,-2.694248E-1,8.002116E0,1.1391475E0,1.1954297E1,-3.4685564E-1,5.5102367E0,1.1892984E0,1.0105035E1,2.2707538E-1,-5.1529247E-1,7.59618E-2,1.0817353E1,-4.8454866E-1,1.8803012E0],"categories":[],"categories_nodes":[],"categories_segments":[],"categories_sizes":[],"default_left":[1,1,0,1,1,1,1,0,0,1,1,0,0,1,0,0,0,0,0],"id":7,"left_children":[1,3,-1,5,7,9,11,-1,-1,13,15,-1,-1,17,-1,-1,-1,-1,-1],"loss_changes":[3.2272844E3,5.603474E2,0E0,2.670089E2,8.34339E1,2.2186441E2,4.4350082E1,0E0,0E0,4.709263E1,1.8827605E2,0E0,0E0,1.3143863E2,0E0,0E0,0E0,0E0,0E0],"parents":[2147483647,0,0,1,1,3,3,4,4,5,5,6,6,9,9,10,10,13,13],"right_children":[2,4,-1,6,8,10,12,-1,-1,14,16,-1,-1,18,-1,-1,-1,-1,-1],"split_conditions":[3.51E0,4.8550003E1,4.3027864E0,2.22E1,9.65E-1,4.7985E1,2.115E0,3.4174427E-1,3.5862892E0,1E-2,3.895E0,3.5678953E-1,3.0315106E0,8.5E-3,-1.5458775E-1,2.278854E-2,3.245206E0,-1.453646E-1,5.640904E-1],"split_indices":[8,10,0,6,2,4,4,0,0,0,14,0,0,50,0,0,0,0,0],"split_type":[0,0,0,0,0,0,0,0,0,0,0,0,0,0,0,0,0,0,0],"sum_hessian":[5.129032E2,4.9791882E2,1.4984391E1,4.9342352E2,4.4953175E0,4.9048907E2,2.9344432E0,1.1238294E0,3.371488E0,4.8493237E2,5.5567117E0,1.0613943E0,1.8730489E0,1.09947975E2,3.749844E2,3.246618E0,2.3100936E0,7.735692E1,3.2591053E1],"tree_param":{"num_deleted":"0","num_feature":"255","num_nodes":"19","size_leaf_vector":"0"}},{"base_weights":[-2.1793984E-1,-4.7547477E-1,1.0059773E0,-4.8008662E-1,7.0418984E-1,-3.7952337E-2,3.4415143E0,-4.846176E-1,2.1599518E-1,-3.8971767E-1,6.817849E-1,-2.2261362E-1,7.6516876E0,-4.913371E-1,-5.1232588E-2,7.0418984E-1,-2.9899165E-1,-5.044795E-1,2.1595154E0,-4.7265312E-1,1.9013904E0,-4.7265312E-1,4.607071E-1,1.1294689E1,-4.10596E-1,-5.085904E-1,-4.3522948E-1,1.0472004E0,-4.347467E-1,2.080778E-1,7.1044292E0,-3.6057842E-1,1.4376408E0,2.1595154E0,1.22839775E1,-5.1172125E-1,-2.6100683E-1,-1.7221496E-1,-5.1027656E-1,-3.0728343E-1,1.4907233E0],"categories":[],"categories_nodes":[],"categories_segments":[],"categories_sizes":[],"default_left":[1,1,1,1,0,1,1,1,1,1,1,1,1,1,1,0,0,0,0,0,1,0,1,1,0,1,1,0,0,1,0,0,0,0,0,0,0,0,0,0,0],"id":8,"left_children":[1,3,5,7,-1,9,11,13,15,17,19,21,23,25,27,-1,-1,-1,-1,-1,29,-1,31,33,-1,35,37,-1,-1,39,-1,-1,-1,-1,-1,-1,-1,-1,-1,-1,-1],"loss_changes":[1.6246133E2,2.651596E0,2.2808783E2,1.4425278E0,0E0,1.6405115E1,4.1684134E2,1.2030106E0,1.0741442E0,1.3802621E1,3.0876068E1,2.842128E0,3.7325623E2,1.8057251E-1,3.6382039E0,0E0,0E0,0E0,0E0,0E0,9.149362E1,0E0,4.2261853E0,5.1911987E1,0E0,1.0797882E-1,1.976366E0,0E0,0E0,6.401803E0,0E0,0E0,0E0,0E0,0E0,0E0,0E0,0E0,0E0,0E0,0E0],"parents":[2147483647,0,0,1,1,2,2,3,3,5,5,6,6,7,7,8,8,9,9,10,10,11,11,12,12,13,13,14,14,20,20,22,22,23,23,25,25,26,26,29,29],"right_children":[2,4,6,8,-1,10,12,14,16,18,20,22,24,26,28,-1,-1,-1,-1,-1,30,-1,32,34,-1,36,38,-1,-1,40,-1,-1,-1,-1,-1,-1,-1,-1,-1,-1,-1],"split_conditions":[7.8499997E-1,9.5E-2,1.2395E1,8.95E-1,2.1125697E-1,7.13406E0,1.145E0,7.2987497E-1,5.0635002E1,2.2E-1,1.8E-1,1.14999995E-1,5E-3,5.0499998E-2,4.5085E1,2.1125697E-1,-8.9697495E-2,-1.5134387E-1,6.478546E-1,-1.4179595E-1,2.45E-1,-1.4179595E-1,4.296E1,9.58E0,-1.2317881E-1,6.8614E-1,1.4649999E-1,3.1416014E-1,-1.3042402E-1,1.5215E1,2.1313288E0,-1.0817353E-1,4.3129227E-1,6.478546E-1,3.6851933E0,-1.5351638E-1,-7.8302056E-2,-5.166449E-2,-1.5308297E-1,-9.2185035E-2,4.47217E-1],"split_indices":[2,71,14,12,0,14,22,2,0,42,24,24,9,50,0,0,0,0,0,0,12,0,0,20,0,2,50,0,0,10,0,0,0,0,0,0,0,0,0,0,0],"split_type":[0,0,0,0,0,0,0,0,0,0,0,0,0,0,0,0,0,0,0,0,0,0,0,0,0,0,0,0,0,0,0,0,0,0,0,0,0,0,0,0,0],"sum_hessian":[5.129032E2,4.2424557E2,8.8657646E1,4.2318417E2,1.0613943E0,6.274714E1,2.591051E1,4.207492E2,2.4349637E0,4.2455776E1,2.0291363E1,1.4360042E1,1.1550468E1,4.1419354E2,6.555671E0,1.0613943E0,1.3735693E0,4.1394382E1,1.0613943E0,1.0738813E1,9.552549E0,1.0738813E1,3.621228E0,7.6795006E0,3.8709679E0,3.1061395E2,1.03579605E2,1.2486993E0,5.306972E0,7.9916754E0,1.5608741E0,2.3100936E0,1.3111342E0,1.0613943E0,6.6181064E0,3.0568158E2,4.932362E0,2.3725286E1,7.985432E1,6.2434964E0,1.748179E0],"tree_param":{"num_deleted":"0","num_feature":"255","num_nodes":"41","size_leaf_vector":"0"}},{"base_weights":[1.7843827E0,9.611572E0,-5.15369E-1,1.3897135E1,-5.021998E-1,1.5174894E1,-4.493971E-1],"categories":[],"categories_nodes":[],"categories_segments":[],"categories_sizes":[],"default_left":[1,1,0,1,0,0,0],"id":9,"left_children":[1,3,-1,5,-1,-1,-1],"loss_changes":[9.255516E3,5.0674893E3,0E0,1.5107402E3,0E0,0E0,0E0],"parents":[2147483647,0,0,1,1,3,3],"right_children":[2,4,-1,6,-1,-1,-1],"split_conditions":[1E-2,2E-4,-1.5461071E-1,2.5E-2,-1.5065995E-1,4.5524683E0,-1.3481914E-1],"split_indices":[0,50,0,4,0,0,0],"split_type":[0,0,0,0,0,0,0],"sum_hessian":[5.129032E2,1.15754425E2,3.971488E2,8.104058E1,3.471384E1,7.436004E1,6.680541E0],"tree_param":{"num_deleted":"0","num_feature":"255","num_nodes":"7","size_leaf_vector":"0"}},{"base_weights":[-3.1912622E-1,-4.7628018E-1,2.0900366E0,-3.4950668E-1,-5.1526076E-1,1.2438491E1,-4.9701118E-1,-4.9131557E-1,4.3111315E-1,-5.111277E-1,-1.5682188E-1,4.5690484E0,-4.232421E-1,2.190813E-1,-2.6100683E-1,1.5779734E-1,-4.8218873E-1,-8.301099E-2,-3.6625263E-1],"categories":[],"categories_nodes":[],"categories_segments":[],"categories_sizes":[],"default_left":[1,1,1,1,0,0,0,1,1,0,1,0,1,0,1,0,0,0,0],"id":10,"left_children":[1,3,5,7,-1,-1,-1,9,11,-1,13,-1,15,-1,17,-1,-1,-1,-1],"loss_changes":[1.9556409E2,2.207985E0,8.5366327E2,1.3136393E1,0E0,0E0,0E0,5.777283E-1,6.7271866E1,0E0,3.310813E-1,0E0,6.3211226E-1,0E0,8.072981E-2,0E0,0E0,0E0,0E0],"parents":[2147483647,0,0,1,1,2,2,3,3,7,7,8,8,10,10,12,12,14,14],"right_children":[2,4,6,8,-1,-1,-1,10,12,-1,14,-1,16,-1,18,-1,-1,-1,-1],"split_conditions":[7.339875E0,1E-2,4.453E1,1.3049999E-1,-1.5457824E-1,3.7315474E0,-1.4910336E-1,4.75E-2,2.4450001E-1,-1.5333831E-1,5.45E-2,1.3707145E0,2.94E-1,6.5724395E-2,8.85E-2,4.7339205E-2,-1.4465663E-1,-2.4903297E-2,-1.0987579E-1],"split_indices":[24,0,0,50,0,0,0,50,50,0,50,0,50,0,50,0,0,0,0],"split_type":[0,0,0,0,0,0,0,0,0,0,0,0,0,0,0,0,0,0,0],"sum_hessian":[5.129032E2,4.8224765E2,3.0655567E1,1.15754425E2,3.6649323E2,5.3694067E0,2.528616E1,9.827264E1,1.748179E1,9.227888E1,5.9937563E0,2.2476587E0,1.5234131E1,1.0613943E0,4.932362E0,1.2486993E0,1.3985432E1,2.4973986E0,2.4349637E0],"tree_param":{"num_deleted":"0","num_feature":"255","num_nodes":"19","size_leaf_vector":"0"}},{"base_weights":[-3.2885566E-1,-4.8025924E-1,1.193252E1,-5.038268E-1,5.5552754E0,-5.057743E-1,2.190813E-1],"categories":[],"categories_nodes":[],"categories_segments":[],"categories_sizes":[],"default_left":[1,1,0,1,0,0,0],"id":11,"left_children":[1,3,-1,5,-1,-1,-1],"loss_changes":[9.5974896E2,7.514307E1,0E0,8.253479E-1,0E0,0E0,0E0],"parents":[2147483647,0,0,1,1,3,3],"right_children":[2,4,-1,6,-1,-1,-1],"split_conditions":[2.326E1,8.1869995E1,3.579756E0,1.415E1,1.6665827E0,-1.517323E-1,6.5724395E-2],"split_indices":[2,10,0,2,0,0,0],"split_type":[0,0,0,0,0,0,0],"sum_hessian":[5.129032E2,5.0759625E2,5.306972E0,5.0653485E2,1.0613943E0,5.0547348E2,1.0613943E0],"tree_param":{"num_deleted":"0","num_feature":"255","num_nodes":"7","size_leaf_vector":"0"}},{"base_weights":[-2.5685766E-1,-4.967053E-1,2.7473066E0,-5.028476E-1,5.2179795E-2,-3.3805192E-1,8.177614E0,-5.069537E-1,-1.8358351E-1,-4.10596E-1,1.0049528E0,-4.9533954E-1,1.6744069E0,-1.136477E-1,1.3237049E1,-5.090117E-1,-2.875334E-1,7.0418984E-1,-4.371094E-1,-4.1698453E-1,7.0418984E-1,2.190813E-1,-4.237034E-1],"categories":[],"categories_nodes":[],"categories_segments":[],"categories_sizes":[],"default_left":[1,1,1,1,1,1,1,1,1,0,0,0,0,1,0,0,1,0,0,0,0,0,0],"id":12,"left_children":[1,3,5,7,9,11,13,15,17,-1,-1,-1,-1,19,-1,-1,21,-1,-1,-1,-1,-1,-1],"loss_changes":[3.7165326E2,1.6335831E0,6.419265E2,5.251312E-1,3.138444E0,8.83368E0,5.829862E2,6.362915E-2,2.0083897E0,0E0,0E0,0E0,0E0,1.8427825E0,0E0,0E0,5.4945225E-1,0E0,0E0,0E0,0E0,0E0,0E0],"parents":[2147483647,0,0,1,1,2,2,3,3,4,4,5,5,6,6,7,7,8,8,13,13,16,16],"right_children":[2,4,6,8,10,12,14,16,18,-1,-1,-1,-1,20,-1,-1,22,-1,-1,-1,-1,-1,-1],"split_conditions":[5.81382E0,5.176105E0,1.7005001E1,2.9500002E-1,2.4999999E-2,3.1397E0,6.3800003E1,4.7373247E0,1.25E-1,-1.2317881E-1,3.0148584E-1,-1.4860187E-1,5.023221E-1,6.0165E1,3.9711149E0,-1.5270351E-1,6.894095E1,2.1125697E-1,-1.3113283E-1,-1.2509537E-1,2.1125697E-1,6.5724395E-2,-1.2711103E-1],"split_indices":[24,24,4,25,50,22,0,24,2,0,0,0,0,0,0,0,0,0,0,0,0,0,0],"split_type":[0,0,0,0,0,0,0,0,0,0,0,0,0,0,0,0,0,0,0,0,0,0,0],"sum_hessian":[5.129032E2,4.7575443E2,3.7148804E1,4.7057233E2,5.182102E0,2.42872E1,1.2861603E1,4.6401666E2,6.555671E0,3.8709679E0,1.3111342E0,2.3225807E1,1.0613943E0,5.244537E0,7.6170654E0,4.583975E2,5.619147E0,1.0613943E0,5.494277E0,4.1831427E0,1.0613943E0,1.0613943E0,4.557752E0],"tree_param":{"num_deleted":"0","num_feature":"255","num_nodes":"23","size_leaf_vector":"0"}},{"base_weights":[-5.078777E-1,-5.1561797E-1,-3.1346846E-1,-4.92257E-1,1.6744069E0],"categories":[],"categories_nodes":[],"categories_segments":[],"categories_sizes":[],"default_left":[1,0,1,0,0],"id":13,"left_children":[1,-1,3,-1,-1],"loss_changes":[6.116791E-1,0E0,8.724238E0,0E0,0E0],"parents":[2147483647,0,0,2,2],"right_children":[2,-1,4,-1,-1],"split_conditions":[1.0415E1,-1.546854E-1,1.8E-1,-1.4767711E-1,5.023221E-1],"split_indices":[24,0,10,0,0],"split_type":[0,0,0,0,0],"sum_hessian":[5.129032E2,4.9167535E2,2.1227888E1,2.0166492E1,1.0613943E0],"tree_param":{"num_deleted":"0","num_feature":"255","num_nodes":"5","size_leaf_vector":"0"}},{"base_weights":[-4.864729E-1,-5.156583E-1,5.6938777E0],"categories":[],"categories_nodes":[],"categories_segments":[],"categories_sizes":[],"default_left":[1,0,0],"id":14,"left_children":[1,-1,-1],"loss_changes":[9.563202E1,0E0,0E0],"parents":[2147483647,0,0],"right_children":[2,-1,-1],"split_conditions":[3.6425E1,-1.5469751E-1,1.7081634E0],"split_indices":[20,0,0],"split_type":[0,0,0],"sum_hessian":[5.129032E2,5.114048E2,1.4984391E0],"tree_param":{"num_deleted":"0","num_feature":"255","num_nodes":"3","size_leaf_vector":"0"}},{"base_weights":[-5.0398594E-1,-5.156592E-1,2.644624E0],"categories":[],"categories_nodes":[],"categories_segments":[],"categories_sizes":[],"default_left":[1,0,0],"id":15,"left_children":[1,-1,-1],"loss_changes":[2.0251999E1,0E0,0E0],"parents":[2147483647,0,0],"right_children":[2,-1,-1],"split_conditions":[5.6715E1,-1.5469778E-1,7.9338723E-1],"split_indices":[14,0,0],"split_type":[0,0,0],"sum_hessian":[5.129032E2,5.1184183E2,1.0613943E0],"tree_param":{"num_deleted":"0","num_feature":"255","num_nodes":"3","size_leaf_vector":"0"}},{"base_weights":[-4.9620235E-1,-5.096619E-1,6.7713E-2,-5.136014E-1,-2.1133693E-1,-4.7241777E-1,2.921466E0,-5.156068E-1,-3.3404332E-1,-4.4471815E-1,7.0418984E-1,-4.453383E-1,2.190813E-1],"categories":[],"categories_nodes":[],"categories_segments":[],"categories_sizes":[],"default_left":[1,1,1,1,1,0,0,0,1,0,0,0,0],"id":16,"left_children":[1,3,5,7,9,-1,-1,-1,11,-1,-1,-1,-1],"loss_changes":[3.9350586E0,4.8147583E-1,2.120663E1,5.935669E-3,2.0743048E0,0E0,0E0,0E0,6.088141E-1,0E0,0E0,0E0,0E0],"parents":[2147483647,0,0,1,1,2,2,3,3,4,4,8,8],"right_children":[2,4,6,8,10,-1,-1,-1,12,-1,-1,-1,-1],"split_conditions":[1.585E-1,3.45E-1,2.1000001E-1,1.3499999E-1,2.93E0,-1.4172533E-1,8.7643987E-1,-1.5468206E-1,5.1510002E1,-1.3341545E-1,2.1125697E-1,-1.336015E-1,6.5724395E-2],"split_indices":[51,25,8,13,2,0,0,0,0,0,0,0,0],"split_type":[0,0,0,0,0,0,0,0,0,0,0,0,0],"sum_hessian":[5.129032E2,5.010406E2,1.1862643E1,4.9379813E2,7.242456E0,1.0676379E1,1.1862643E0,4.8649323E2,7.3048906E0,6.1810613E0,1.0613943E0,6.2434964E0,1.0613943E0],"tree_param":{"num_deleted":"0","num_feature":"255","num_nodes":"13","size_leaf_vector":"0"}},{"base_weights":[-5.117695E-1,-5.156503E-1,-1.3283603E-1,7.0418984E-1,-4.226472E-1],"categories":[],"categories_nodes":[],"categories_segments":[],"categories_sizes":[],"default_left":[1,0,1,0,0],"id":17,"left_children":[1,-1,3,-1,-1],"loss_changes":[6.8722534E-1,0E0,1.8881475E0,0E0,0E0],"parents":[2147483647,0,0,2,2],"right_children":[2,-1,4,-1,-1],"split_conditions":[9.35E-1,-1.546951E-1,3.6635002E1,2.1125697E-1,-1.2679417E-1],"split_indices":[42,0,0,0,0],"split_type":[0,0,0,0,0],"sum_hessian":[5.129032E2,5.0734653E2,5.5567117E0,1.0613943E0,4.4953175E0],"tree_param":{"num_deleted":"0","num_feature":"255","num_nodes":"5","size_leaf_vector":"0"}},{"base_weights":[-5.098236E-1,-5.156566E-1,5.2607226E-1,1.1892984E0,-2.931112E-1],"categories":[],"categories_nodes":[],"categories_segments":[],"categories_sizes":[],"default_left":[1,0,1,0,0],"id":18,"left_children":[1,-1,3,-1,-1],"loss_changes":[3.37648E0,0E0,2.1809046E0,0E0,0E0],"parents":[2147483647,0,0,2,2],"right_children":[2,-1,4,-1,-1],"split_conditions":[1.835E0,-1.5469699E-1,6.7884995E1,3.5678953E-1,-8.793336E-2],"split_indices":[42,0,0,0,0],"split_type":[0,0,0,0,0],"sum_hessian":[5.129032E2,5.105307E2,2.3725286E0,1.0613943E0,1.3111342E0],"tree_param":{"num_deleted":"0","num_feature":"255","num_nodes":"5","size_leaf_vector":"0"}},{"base_weights":[-4.631222E-1,-4.7275028E-1,2.0066636E0,-3.2329467E-1,-5.1536614E-1,-5.103738E-1,1.20491184E-1,5.857251E0,-3.524364E-1,1.1650524E0,-4.6913016E-1,-4.9946293E-1,1.1227837E-2],"categories":[],"categories_nodes":[],"categories_segments":[],"categories_sizes":[],"default_left":[1,1,0,1,0,0,1,0,1,0,1,0,0],"id":19,"left_children":[1,3,-1,5,-1,-1,7,-1,9,-1,11,-1,-1],"loss_changes":[1.3168907E1,3.0989685E0,0E0,9.728885E0,0E0,0E0,9.794219E1,0E0,6.494913E0,0E0,4.7048712E-1,0E0,0E0],"parents":[2147483647,0,0,1,1,3,3,6,6,8,8,10,10],"right_children":[2,4,-1,6,-1,-1,8,-1,10,-1,12,-1,-1],"split_conditions":[5.2300003E1,2.5E-2,6.019991E-1,7.0000003E-4,-1.5460984E-1,-1.5311214E-1,8.5E-3,1.7571754E0,1.35E-2,3.4951574E-1,9.95E-1,-1.4983888E-1,3.3683511E-3],"split_indices":[2,0,0,50,0,0,50,0,50,0,50,0,0],"split_type":[0,0,0,0,0,0,0,0,0,0,0,0,0],"sum_hessian":[5.129032E2,5.1171695E2,1.1862643E0,1.15442245E2,3.9627472E2,8.110302E1,3.433923E1,1.748179E0,3.2591053E1,1.685744E0,3.0905308E1,2.9032259E1,1.8730489E0],"tree_param":{"num_deleted":"0","num_feature":"255","num_nodes":"13","size_leaf_vector":"0"}},{"base_weights":[-4.3004203E-1,-5.078337E-1,1.0864952E1],"categories":[],"categories_nodes":[],"categories_segments":[],"categories_sizes":[],"default_left":[1,0,0],"id":20,"left_children":[1,-1,-1],"loss_changes":[4.57062E2,0E0,0E0],"parents":[2147483647,0,0],"right_children":[2,-1,-1],"split_conditions":[9.3965E1,-1.5235013E-1,3.2594857E0],"split_indices":[4,0,0],"split_type":[0,0,0],"sum_hessian":[5.129032E2,5.1034338E2,2.5598335E0],"tree_param":{"num_deleted":"0","num_feature":"255","num_nodes":"3","size_leaf_vector":"0"}},{"base_weights":[-4.631222E-1,-4.781227E-1,4.7889555E-1,-3.4482E-1,-5.153546E-1,-3.1426188E-1,3.1297326E0,-5.102864E-1,6.4341284E-2,-4.119384E-1,-9.061676E-2,2.9913225E0,-2.1544084E-1,2.5830892E-1,-4.464621E-1,-7.66827E-2,8.6357725E-1,-1.3720383E-1,-4.888988E-1],"categories":[],"categories_nodes":[],"categories_segments":[],"categories_sizes":[],"default_left":[1,1,1,1,0,1,0,0,1,0,0,0,1,1,1,0,0,0,0],"id":21,"left_children":[1,3,5,7,-1,9,-1,-1,11,-1,-1,-1,13,15,17,-1,-1,-1,-1],"loss_changes":[7.4908066E0,2.3353653E0,1.896993E1,7.721818E0,0E0,1.263603E-1,0E0,0E0,2.8152737E1,0E0,0E0,0E0,3.573075E0,2.2944694E0,2.1644449E-1,0E0,0E0,0E0,0E0],"parents":[2147483647,0,0,1,1,2,2,3,3,5,5,8,8,12,12,13,13,14,14],"right_children":[2,4,6,8,-1,10,-1,-1,12,-1,-1,-1,14,16,18,-1,-1,-1,-1],"split_conditions":[5.4010002E1,1E-2,7.8499997E-1,8.5E-3,-1.5460637E-1,8.5759995E1,9.3891984E-1,-1.5308592E-1,1.55E-2,-1.2358152E-1,-2.718503E-2,8.973968E-1,7.65E-2,4.45E-2,1.22E-1,-2.3004811E-2,2.590732E-1,-4.116115E-2,-1.4666966E-1],"split_indices":[4,0,0,50,0,4,0,0,50,0,0,0,50,50,50,0,0,0,0],"split_type":[0,0,0,0,0,0,0,0,0,0,0,0,0,0,0,0,0,0,0],"sum_hessian":[5.129032E2,5.053486E2,7.5546308E0,1.1257024E2,3.9277835E2,6.493236E0,1.0613943E0,7.997919E1,3.2591053E1,3.9334028E0,2.5598335E0,1.9979188E0,3.0593132E1,9.989594E0,2.0603539E1,6.992716E0,2.9968781E0,2.9968781E0,1.7606659E1],"tree_param":{"num_deleted":"0","num_feature":"255","num_nodes":"19","size_leaf_vector":"0"}},{"base_weights":[-5.137154E-1],"categories":[],"categories_nodes":[],"categories_segments":[],"categories_sizes":[],"default_left":[0],"id":22,"left_children":[-1],"loss_changes":[0E0],"parents":[2147483647],"right_children":[-1],"split_conditions":[-1.5411462E-1],"split_indices":[0],"split_type":[0],"sum_hessian":[5.129032E2],"tree_param":{"num_deleted":"0","num_feature":"255","num_nodes":"1","size_leaf_vector":"0"}},{"base_weights":[-5.137154E-1],"categories":[],"categories_nodes":[],"categories_segments":[],"categories_sizes":[],"default_left":[0],"id":23,"left_children":[-1],"loss_changes":[0E0],"parents":[2147483647],"right_children":[-1],"split_conditions":[-1.5411462E-1],"split_indices":[0],"split_type":[0],"sum_hessian":[5.129032E2],"tree_param":{"num_deleted":"0","num_feature":"255","num_nodes":"1","size_leaf_vector":"0"}},{"base_weights":[-4.7674343E-1,-5.1564753E-1,2.0704632E0,-4.3933964E-1,8.607126E0],"categories":[],"categories_nodes":[],"categories_segments":[],"categories_sizes":[],"default_left":[1,0,1,0,0],"id":24,"left_children":[1,-1,3,-1,-1],"loss_changes":[5.1993782E1,0E0,1.3388354E2,0E0,0E0],"parents":[2147483647,0,0,2,2],"right_children":[2,-1,4,-1,-1],"split_conditions":[2.262E1,-1.5469426E-1,2.744E1,-1.318019E-1,2.582138E0],"split_indices":[20,0,4,0,0],"split_type":[0,0,0,0,0],"sum_hessian":[5.129032E2,5.0597296E2,6.930281E0,5.6815815E0,1.2486993E0],"tree_param":{"num_deleted":"0","num_feature":"255","num_nodes":"5","size_leaf_vector":"0"}},{"base_weights":[-4.9036467E-1,-4.0089658E-1,-5.15369E-1,-5.1054597E-1,-1.1126367E-1,7.4188554E-1,-4.9477535E-1,3.8166898E-1,1.4156126E0,9.956533E-1,-2.168278E-1,-1.0760132E-2,-3.4784085E-1],"categories":[],"categories_nodes":[],"categories_segments":[],"categories_sizes":[],"default_left":[1,1,0,0,1,1,0,1,0,0,1,0,0],"id":25,"left_children":[1,3,-1,-1,5,7,-1,9,-1,-1,11,-1,-1],"loss_changes":[9.4303894E-1,3.6510906E0,0E0,0E0,1.1276099E1,2.066135E0,0E0,3.2906067E0,0E0,0E0,1.3281822E-1,0E0,0E0],"parents":[2147483647,0,0,1,1,4,4,5,5,7,7,10,10],"right_children":[2,4,-1,-1,6,8,-1,10,-1,-1,12,-1,-1],"split_conditions":[1E-2,9.5E-3,-1.5461071E-1,-1.5316379E-1,5.0499998E-2,3.9499998E-2,-1.4843261E-1,2.05E-2,4.2468378E-1,2.9869598E-1,3.0499998E-2,-3.2280397E-3,-1.0435226E-1],"split_indices":[0,50,0,0,50,50,0,50,0,0,50,0,0],"split_type":[0,0,0,0,0,0,0,0,0,0,0,0,0],"sum_hessian":[5.129032E2,1.15754425E2,3.971488E2,8.341311E1,3.2341312E1,9.739855E0,2.2601458E1,7.367326E0,2.3725286E0,3.3090532E0,4.058273E0,1.9979188E0,2.0603538E0],"tree_param":{"num_deleted":"0","num_feature":"255","num_nodes":"13","size_leaf_vector":"0"}},{"base_weights":[-5.078777E-1,-5.156094E-1,-3.4443074E-1,-4.961333E-1,1.6744069E0],"categories":[],"categories_nodes":[],"categories_segments":[],"categories_sizes":[],"default_left":[1,0,1,0,0],"id":26,"left_children":[1,-1,3,-1,-1],"loss_changes":[4.7184753E-1,0E0,8.862082E0,0E0,0E0],"parents":[2147483647,0,0,2,2],"right_children":[2,-1,4,-1,-1],"split_conditions":[3.1075E1,-1.5468282E-1,1.4500001E-1,-1.4884E-1,5.023221E-1],"split_indices":[4,0,12,0,0],"split_type":[0,0,0,0,0],"sum_hessian":[5.129032E2,4.876795E2,2.5223726E1,2.416233E1,1.0613943E0],"tree_param":{"num_deleted":"0","num_feature":"255","num_nodes":"5","size_leaf_vector":"0"}},{"base_weights":[-5.000941E-1,-5.1370925E-1,3.1297326E0,-5.1565635E-1,1.0593765E-1],"categories":[],"categories_nodes":[],"categories_segments":[],"categories_sizes":[],"default_left":[1,1,0,0,0],"id":27,"left_children":[1,3,-1,-1,-1],"loss_changes":[2.7005157E1,6.733856E-1,0E0,0E0,0E0],"parents":[2147483647,0,0,1,1],"right_children":[2,4,-1,-1,-1],"split_conditions":[5.3499997E-1,3.532845E1,9.3891984E-1,-1.5469691E-1,3.1781297E-2],"split_indices":[28,20,0,0,0],"split_type":[0,0,0,0,0],"sum_hessian":[5.129032E2,5.1184183E2,1.0613943E0,5.1040582E2,1.4360042E0],"tree_param":{"num_deleted":"0","num_feature":"255","num_nodes":"5","size_leaf_vector":"0"}},{"base_weights":[-5.137154E-1,-5.156469E-1,-3.3266E-1,2.190813E-1,-4.4471815E-1],"categories":[],"categories_nodes":[],"categories_segments":[],"categories_sizes":[],"default_left":[1,0,1,0,0],"id":28,"left_children":[1,-1,3,-1,-1],"loss_changes":[8.178711E-3,0E0,6.070365E-1,0E0,0E0],"parents":[2147483647,0,0,2,2],"right_children":[2,-1,4,-1,-1],"split_conditions":[3.45E-1,-1.5469407E-1,4.115E1,6.5724395E-2,-1.3341545E-1],"split_indices":[25,0,0,0,0],"split_type":[0,0,0,0,0],"sum_hessian":[5.129032E2,5.0566077E2,7.242456E0,1.0613943E0,6.1810613E0],"tree_param":{"num_deleted":"0","num_feature":"255","num_nodes":"5","size_leaf_vector":"0"}},{"base_weights":[-4.5533863E-1,-5.156444E-1,2.803969E0,-4.4771558E-1,9.996182E0],"categories":[],"categories_nodes":[],"categories_segments":[],"categories_sizes":[],"default_left":[1,0,1,0,0],"id":29,"left_children":[1,-1,3,-1,-1],"loss_changes":[1.02456085E2,0E0,2.2644327E2,0E0,0E0],"parents":[2147483647,0,0,2,2],"right_children":[2,-1,4,-1,-1],"split_conditions":[2.81285E1,-1.5469332E-1,7.1821304E1,-1.3431469E-1,2.9988549E0],"split_indices":[24,0,0,0,0],"split_type":[0,0,0,0,0],"sum_hessian":[5.129032E2,5.0441208E2,8.491155E0,6.493236E0,1.9979188E0],"tree_param":{"num_deleted":"0","num_feature":"255","num_nodes":"5","size_leaf_vector":"0"}},{"base_weights":[-5.137154E-1,-5.156592E-1,2.190813E-1],"categories":[],"categories_nodes":[],"categories_segments":[],"categories_sizes":[],"default_left":[1,0,0],"id":30,"left_children":[1,-1,-1],"loss_changes":[8.449707E-1,0E0,0E0],"parents":[2147483647,0,0],"right_children":[2,-1,-1],"split_conditions":[4.15E1,-1.5469778E-1,6.5724395E-2],"split_indices":[24,0,0],"split_type":[0,0,0],"sum_hessian":[5.129032E2,5.1184183E2,1.0613943E0],"tree_param":{"num_deleted":"0","num_feature":"255","num_nodes":"3","size_leaf_vector":"0"}},{"base_weights":[6.2221485E-1,6.4418626E-1,-3.6695963E-1,2.5253955E-1,6.936348E-1,-4.9604803E-1,4.7011498E-1,-3.1406552E-1,7.7830154E-1,6.8534434E-1,3.3581374E0,-4.5547214E-1,8.871036E-1,1.0042877E0,7.220957E-1,7.600246E-1,4.959581E-1,-4.9059808E-1,7.257003E-1,1.9789335E0,6.924295E-1,7.216286E-1,1.3604678E0,-2.0134513E-1,6.287277E-1,-5.2884316E-1,-2.2602603E-1,7.262192E-1,-8.100509E-1,4.668536E0,6.270647E-1,-4.4120157E-1,6.4020157E-1],"categories":[],"categories_nodes":[],"categories_segments":[],"categories_sizes":[],"default_left":[1,1,1,1,1,0,0,1,1,1,0,1,0,1,0,1,1,1,0,0,0,1,1,1,0,0,0,0,0,0,0,0,0],"id":31,"left_children":[1,3,5,7,9,-1,-1,11,13,15,-1,17,-1,19,-1,21,23,25,-1,-1,-1,27,29,31,-1,-1,-1,-1,-1,-1,-1,-1,-1],"loss_changes":[2.5285583E1,2.1667664E1,3.0082254E0,3.8379116E1,1.9807556E1,0E0,0E0,1.0990206E1,1.2184143E-1,1.3752594E1,0E0,2.69695E0,0E0,1.8891459E0,0E0,1.5493195E1,2.6549866E1,4.409256E-1,0E0,0E0,0E0,5.325836E0,9.85346E1,9.649987E0,0E0,0E0,0E0,0E0,0E0,0E0,0E0,0E0,0E0],"parents":[2147483647,0,0,1,1,2,2,3,3,4,4,7,7,8,8,9,9,11,11,13,13,15,15,16,16,17,17,21,21,22,22,23,23],"right_children":[2,4,6,8,10,-1,-1,12,14,16,-1,18,-1,20,-1,22,24,26,-1,-1,-1,28,30,32,-1,-1,-1,-1,-1,-1,-1,-1,-1],"split_conditions":[2.6715E1,2.3424599E1,4.79E1,4.4E-1,3.55E-1,-1.4881441E-1,1.410345E-1,1.9E0,6.3685E-1,5E-5,1.0074413E0,8.3E-1,2.661311E-1,5.25E0,2.1662873E-1,1.9E-2,4.995E0,9.4349995E-2,2.1771011E-1,5.936801E-1,2.0772885E-1,9.8825E1,4.1665E1,4.375E0,1.8861832E-1,-1.5865296E-1,-6.780781E-2,2.1786577E-1,-2.4301527E-1,1.4005609E0,1.8811943E-1,-1.3236047E-1,1.9206049E-1],"split_indices":[14,0,48,50,16,0,0,32,50,50,0,5,0,32,0,9,48,50,0,0,0,0,48,32,0,0,0,0,0,0,0,0,0],"split_type":[0,0,0,0,0,0,0,0,0,0,0,0,0,0,0,0,0,0,0,0,0,0,0,0,0,0,0,0,0,0,0,0,0],"sum_hessian":[1.1515564E3,1.1268751E3,2.4681217E1,1.2701192E2,9.998632E2,2.1736546E1,2.9446712E0,6.1325302E1,6.5686615E1,9.980152E2,1.84807E0,5.5421646E1,5.903657E0,9.723488E0,5.596313E1,7.13607E2,2.8440817E2,5.438887E1,1.0327755E0,1.0612285E0,8.66226E0,6.7278674E2,4.082024E1,4.5408276E1,2.389999E2,4.6646973E1,7.7418966E0,6.713007E2,1.486065E0,6.4339333E0,3.4386307E1,3.570688E1,9.701399E0],"tree_param":{"num_deleted":"0","num_feature":"255","num_nodes":"33","size_leaf_vector":"0"}},{"base_weights":[1.870494E-1,-4.33814E-1,6.2641215E-1,-4.8478466E-1,4.7927782E-1,6.768394E-1,-4.6808243E-1,-4.912097E-1,-3.3031218E-2,-4.0760612E-1,1.2869782E0,-1.0919498E0,6.9882745E-1,2.4651256E-1,-2.7405348E-1,4.6692705E-1,1.9560953E0,9.0733224E-1,6.511607E-1,2.9006653E0,7.495341E-1],"categories":[],"categories_nodes":[],"categories_segments":[],"categories_sizes":[],"default_left":[1,1,1,1,1,1,0,0,1,0,1,0,1,0,0,0,0,1,0,0,0],"id":32,"left_children":[1,3,5,7,9,11,-1,-1,13,-1,15,-1,17,-1,-1,-1,-1,19,-1,-1,-1],"loss_changes":[1.0447578E2,7.6274223E0,1.2685844E1,4.220276E-1,6.9026303E0,9.1111145E0,0E0,0E0,2.8244913E-1,0E0,1.7755527E0,0E0,1.5223618E0,0E0,0E0,0E0,0E0,9.470606E0,0E0,0E0,0E0],"parents":[2147483647,0,0,1,1,2,2,3,3,4,4,5,5,8,8,10,10,12,12,17,17],"right_children":[2,4,6,8,10,12,-1,-1,14,-1,16,-1,18,-1,-1,-1,-1,20,-1,-1,-1],"split_conditions":[2.7165E1,3.705E1,4.6735E1,7E-3,1.8465E1,1.7755E1,-1.4042473E-1,-1.4736292E-1,4.9545E1,-1.2228184E-1,4.212E1,-3.2758495E-1,3.7605E1,7.395377E-2,-8.221605E-2,1.4007813E-1,5.8682865E-1,2.4635E1,1.9534822E-1,8.701996E-1,2.2486024E-1],"split_indices":[14,10,0,17,0,0,0,0,0,0,10,0,14,0,0,0,0,10,0,0,0],"split_type":[0,0,0,0,0,0,0,0,0,0,0,0,0,0,0,0,0,0,0,0,0],"sum_hessian":[3.8100165E2,1.5789412E2,2.2310751E2,1.4999042E2,7.903706E0,2.1364569E2,9.461823E0,1.47801E2,2.1894245E0,4.003295E0,3.900411E0,2.0257614E0,2.1161993E2,1.0031575E0,1.1862669E0,2.5154147E0,1.3849963E0,3.602103E1,1.7559889E2,1.367274E0,3.4653755E1],"tree_param":{"num_deleted":"0","num_feature":"255","num_nodes":"21","size_leaf_vector":"0"}},{"base_weights":[3.4150645E-1,5.3923804E-1,-4.464846E-1,1.2538329E-1,7.013778E-1,-4.629018E-1,4.3635362E-1,-3.161767E-1,7.4910015E-1,5.435637E-1,1.3814272E0,-4.7469783E-1,2.3384118E-1,-4.6702507E-1,1.1481624E-2,1.4575609E0,-3.6046633E-1,-4.461479E-1,6.574551E-1,3.887011E0,8.3439404E-1,-5.009081E-1,-8.305E-2,-4.902625E-1,-2.6161003E-1,9.2981756E-1,-1.6006765E-1,1.7125728E0,-4.0057558E-1,1.8500677E-1,-4.738612E-1,-4.8965275E-1,5.5776764E-2,6.251055E-1,2.5673149E0,4.277292E0,7.1905285E-1,8.642129E-1,-7.146749E-2,-3.5553876E-1,6.313421E-1,1.6594678E-1,-4.0621534E-1,-3.1322423E-1,-5.6283437E-2,4.2486653E-1,2.1492097E0,-2.832839E-1,5.223168E-1,-4.0772066E-1,6.560389E-1,2.4813432E-1,8.821195E-1,-4.2229235E-1,-4.028308E-2],"categories":[],"categories_nodes":[],"categories_segments":[],"categories_sizes":[],"default_left":[1,1,1,1,1,1,0,1,1,1,1,1,0,1,1,1,1,1,1,1,1,0,1,0,1,0,1,1,0,1,0,0,0,1,0,0,0,1,0,1,0,0,0,0,0,0,0,0,0,0,0,0,0,0,0],"id":33,"left_children":[1,3,5,7,9,11,-1,13,15,17,19,21,-1,23,25,27,29,31,33,35,37,-1,39,-1,41,-1,43,45,-1,47,-1,-1,-1,49,-1,-1,-1,51,-1,53,-1,-1,-1,-1,-1,-1,-1,-1,-1,-1,-1,-1,-1,-1,-1],"loss_changes":[6.41347E1,2.1939598E1,1.4021568E0,2.6021576E1,2.4538795E1,7.8313255E-1,0E0,2.7495117E0,3.1264462E1,2.2037914E1,5.67023E1,7.872963E-1,0E0,5.3325653E-2,3.0599258E0,1.2088661E1,1.0798056E0,4.7503662E-1,9.108673E0,6.276642E0,1.0658264E0,0E0,1.4437816E0,0E0,4.3900102E-1,0E0,2.434189E-1,1.1090862E1,0E0,6.9762784E-1,0E0,0E0,0E0,5.7575073E0,0E0,0E0,0E0,1.7896271E-1,0E0,9.187186E-2,0E0,0E0,0E0,0E0,0E0,0E0,0E0,0E0,0E0,0E0,0E0,0E0,0E0,0E0,0E0],"parents":[2147483647,0,0,1,1,2,2,3,3,4,4,5,5,7,7,8,8,9,9,10,10,11,11,13,13,14,14,15,15,16,16,17,17,18,18,19,19,20,20,22,22,24,24,26,26,27,27,29,29,33,33,37,37,39,39],"right_children":[2,4,6,8,10,12,-1,14,16,18,20,22,-1,24,26,28,30,32,34,36,38,-1,40,-1,42,-1,44,46,-1,48,-1,-1,-1,50,-1,-1,-1,52,-1,54,-1,-1,-1,-1,-1,-1,-1,-1,-1,-1,-1,-1,-1,-1,-1],"split_conditions":[9.905E0,4.8485E1,4E-1,4.05E-2,1.8015E1,2.65E0,1.3090609E-1,2.2E-2,1.3049999E-1,2.1065E1,5.95E-1,2.2625E1,7.015236E-2,4.5E-3,2.95E-2,4.2E-1,1.7050001E-1,1.41E1,1.45E0,2.25E0,7E-2,-1.5027243E-1,1.3E-1,-1.4707875E-1,9.5E-3,2.7894527E-1,3.0499998E-2,5.95E-2,-1.2017268E-1,1.5650001E-1,-1.4215836E-1,-1.4689583E-1,1.673303E-2,5.3499997E-1,7.701945E-1,1.2831876E0,2.1571587E-1,7.1500003E-1,-2.1440247E-2,2.848E1,1.8940264E-1,4.978404E-2,-1.2186461E-1,-9.3967274E-2,-1.6885031E-2,1.2745996E-1,6.4476293E-1,-8.498517E-2,1.5669505E-1,-1.22316204E-1,1.9681168E-1,7.44403E-2,2.6463586E-1,-1.266877E-1,-1.2084925E-2],"split_indices":[4,0,81,50,10,1,0,50,50,14,12,14,0,50,50,10,50,10,15,20,24,0,12,0,50,0,50,50,0,50,0,0,0,4,0,0,0,4,0,14,0,0,0,0,0,0,0,0,0,0,0,0,0,0,0],"split_type":[0,0,0,0,0,0,0,0,0,0,0,0,0,0,0,0,0,0,0,0,0,0,0,0,0,0,0,0,0,0,0,0,0,0,0,0,0,0,0,0,0,0,0,0,0,0,0,0,0,0,0,0,0,0,0],"sum_hessian":[4.0907407E2,3.2726797E2,8.1806076E1,9.2623604E1,2.346444E2,8.077957E1,1.0265049E0,5.4519577E1,3.8104027E1,1.9190881E2,4.273557E1,7.974811E1,1.0314643E0,3.7041126E1,1.7478449E1,2.3063986E1,1.5040039E1,1.9503841E1,1.7240498E2,6.564136E0,3.6171432E1,7.4484406E1,5.263696E0,3.2030952E1,5.010174E0,2.055397E0,1.5423052E1,2.034954E1,2.7144458E0,2.4797852E0,1.2560253E1,1.7970663E1,1.5331765E0,1.7083858E2,1.5663943E0,5.532393E0,1.0317433E0,3.5063213E1,1.1082213E0,4.173955E0,1.0897412E0,1.2289457E0,3.781228E0,5.414591E0,1.0008461E1,5.6525083E0,1.4697032E1,1.1053648E0,1.3744205E0,4.613658E0,1.6622493E2,1.4099764E0,3.3653236E1,3.1643903E0,1.0095646E0],"tree_param":{"num_deleted":"0","num_feature":"255","num_nodes":"55","size_leaf_vector":"0"}},{"base_weights":[3.6001965E-1,-2.3957182E-1,5.441212E-1,-4.5413342E-1,1.5691315E-1,-5.534479E-1,6.448209E-1,-4.676E-1,-7.790111E-2,9.020793E-1,-2.1249337E-1,-4.7138557E-1,-1.2123876E0,6.8693966E-1,-4.6114692E-1,-4.809777E-1,-2.2393891E-1,2.42336E-1,-3.0530465E-1,1.2256515E0,-3.5635784E-1,-4.1141438E-1,7.94917E-2,-4.8664346E-1,-4.0855944E-2,6.4711994E-1,2.1888995E0,1.1861327E-1,-3.8004774E-1,3.3110872E-1,1.8432778E0,-4.6511096E-1,-2.137224E-1,7.462969E-1,-4.3224192E-1,6.810459E-1,-3.7829742E-1,3.200879E0,4.259162E-1,5.20484E-1,-1.695731E-3,2.011344E-1,-3.817762E-1,1.4326779E0,-3.2763276E-1,7.129989E-1,-4.646891E-1,-4.9332657E-1,2.2667736E-1,7.096871E-1,3.7781675E0],"categories":[],"categories_nodes":[],"categories_segments":[],"categories_sizes":[],"default_left":[1,1,1,1,1,1,1,1,1,1,1,1,0,1,0,0,1,0,0,1,0,1,1,0,0,1,1,0,0,1,0,0,1,1,0,1,1,1,0,0,0,0,0,0,0,0,0,0,0,0,0],"id":34,"left_children":[1,3,5,7,9,11,13,15,17,19,21,23,-1,25,-1,-1,27,-1,-1,29,-1,31,33,-1,-1,35,37,-1,-1,39,-1,-1,41,43,-1,45,47,49,-1,-1,-1,-1,-1,-1,-1,-1,-1,-1,-1,-1,-1],"loss_changes":[4.7849216E1,8.7694E0,3.6945625E1,3.0101013E-1,1.0279136E1,9.619541E-1,1.4463135E1,1.0122967E-1,3.2896665E-1,5.460044E0,1.5027286E0,1.5652084E-1,0E0,1.610402E1,0E0,0E0,3.235415E-1,0E0,0E0,4.9358025E0,0E0,6.211567E-2,4.1080728E0,0E0,0E0,1.0234962E1,1.1386383E1,0E0,0E0,3.3611256E-1,0E0,0E0,4.3236834E-1,4.290495E0,0E0,1.0507843E1,7.9574215E-1,3.627308E0,0E0,0E0,0E0,0E0,0E0,0E0,0E0,0E0,0E0,0E0,0E0,0E0,0E0],"parents":[2147483647,0,0,1,1,2,2,3,3,4,4,5,5,6,6,7,7,8,8,9,9,10,10,11,11,13,13,16,16,19,19,21,21,22,22,25,25,26,26,29,29,32,32,33,33,35,35,36,36,37,37],"right_children":[2,4,6,8,10,12,14,16,18,20,22,24,-1,26,-1,-1,28,-1,-1,30,-1,32,34,-1,-1,36,38,-1,-1,40,-1,-1,42,44,-1,46,48,50,-1,-1,-1,-1,-1,-1,-1,-1,-1,-1,-1,-1,-1],"split_conditions":[3.685E0,2.08E-2,4.189E1,2.5149999E0,6.75E-2,3.23627E1,4.995E0,9.649999E-3,4.8450003E0,1.145E0,3.4350002E-1,1.4299999E1,-3.6371627E-1,4.755E0,-1.3834408E-1,-1.4429332E-1,1.1E-2,7.2700806E-2,-9.1591395E-2,3.85E-2,-1.0690736E-1,2.5989997E-1,5.425E-1,-1.4599304E-1,-1.2256783E-2,2.9805E1,8.365E0,3.5583984E-2,-1.1401433E-1,3.25E-2,5.5298334E-1,-1.395333E-1,2.805E-1,1.95E-1,-1.2967259E-1,7.1500003E-1,1.605E0,7.87E0,1.2777486E-1,1.561452E-1,-5.087193E-4,6.0340323E-2,-1.14532866E-1,4.2980337E-1,-9.828983E-2,2.1389969E-1,-1.3940674E-1,-1.4799798E-1,6.800321E-2,2.1290614E-1,1.1334503E0],"split_indices":[14,50,0,14,50,20,48,50,20,4,50,20,0,22,0,0,50,0,0,50,0,50,50,0,0,14,14,0,0,50,0,0,50,24,0,24,8,20,0,0,0,0,0,0,0,0,0,0,0,0,0],"split_type":[0,0,0,0,0,0,0,0,0,0,0,0,0,0,0,0,0,0,0,0,0,0,0,0,0,0,0,0,0,0,0,0,0,0,0,0,0,0,0,0,0,0,0,0,0,0,0,0,0,0,0],"sum_hessian":[4.3129187E2,1.01246315E2,3.3004553E2,6.5600555E1,3.564576E1,2.7358418E1,3.0268713E2,6.3099182E1,2.501369E0,1.1336277E1,2.4309484E1,2.585401E1,1.5044084E0,2.9194772E2,1.0739415E1,5.889188E1,4.207304E0,1.0114071E0,1.4899619E0,9.038364E0,2.297912E0,1.4215708E1,1.0093777E1,2.4843233E1,1.0107762E0,2.8580145E2,6.146272E0,1.3923143E0,2.8149898E0,4.319006E0,4.719359E0,1.0115466E1,4.1002417E0,4.183792E0,5.9099846E0,2.769736E2,8.827835E0,3.3866687E0,2.7596037E0,2.3932467E0,1.9257593E0,1.1253539E0,2.974888E0,2.348648E0,1.8351442E0,2.698262E2,7.1473966E0,7.5725503E0,1.255285E0,1.0565689E0,2.3300998E0],"tree_param":{"num_deleted":"0","num_feature":"255","num_nodes":"51","size_leaf_vector":"0"}},{"base_weights":[2.6007834E-1,-3.1138366E-1,5.22977E-1,-4.772665E-1,7.3562935E-2,7.8234404E-1,-3.017055E-1,-5.0040865E-1,5.175375E-1,1.0950352E0,-2.1673934E-1,8.9642966E-1,-2.20129E-1,-4.0649524E-1,8.712774E-1,1.7390805E0,-3.4190997E-1,-3.606965E-2,-4.6229988E-1,1.8291982E0,7.849819E-1,3.3869776E-1,-5.021536E-1,-5.112144E-2,-4.7104043E-1,-3.67489E-1,2.6551263E0,7.359775E-1,2.0655155E0,1.4486149E-1,-4.1348857E-1,2.1934261E0,-3.4117952E-1,1.8247637E0,7.080957E-1,6.527934E-1,-3.2902792E-1,-5.492978E-1,1.2289195E-2,9.5357215E-1,-4.9670726E-1,2.2763464E-1,-4.943883E-1,-2.3991275E-1,1.1732687E0,2.544156E0,-3.246043E-1,1.7518987E-1,2.0431054E0,7.2995603E-1,-3.9057192E-1,1.6992717E0,-2.560412E-1],"categories":[],"categories_nodes":[],"categories_segments":[],"categories_sizes":[],"default_left":[1,1,1,1,1,1,1,0,0,1,1,1,1,1,1,1,0,1,0,1,1,1,1,1,1,0,0,0,0,1,0,1,0,1,1,0,0,0,0,1,0,0,0,0,0,0,0,0,0,0,0,0,0],"id":35,"left_children":[1,3,5,7,9,11,13,-1,-1,15,17,19,21,23,25,27,-1,29,-1,31,33,35,37,39,41,-1,-1,-1,-1,43,-1,45,-1,47,49,-1,-1,-1,-1,51,-1,-1,-1,-1,-1,-1,-1,-1,-1,-1,-1,-1,-1],"loss_changes":[4.8497917E1,6.5483932E0,4.74485E1,1.9031105E0,9.603034E0,1.9433372E1,6.93417E0,0E0,0E0,7.2161293E0,1.1114848E0,1.4282761E1,3.0050902E0,1.1187649E0,1.1379979E1,1.513853E-1,0E0,1.1343741E0,0E0,1.29114E1,9.64595E0,1.6054099E0,3.0646372E-1,4.4043045E0,7.983856E-1,0E0,0E0,0E0,0E0,4.7832212E0,0E0,1.2580429E1,0E0,2.8066673E0,3.3841324E0,0E0,0E0,0E0,0E0,3.1772835E0,0E0,0E0,0E0,0E0,0E0,0E0,0E0,0E0,0E0,0E0,0E0,0E0,0E0],"parents":[2147483647,0,0,1,1,2,2,3,3,4,4,5,5,6,6,9,9,10,10,11,11,12,12,13,13,14,14,15,15,17,17,19,19,20,20,21,21,22,22,23,23,24,24,29,29,31,31,33,33,34,34,39,39],"right_children":[2,4,6,8,10,12,14,-1,-1,16,18,20,22,24,26,28,-1,30,-1,32,34,36,38,40,42,-1,-1,-1,-1,44,-1,46,-1,48,50,-1,-1,-1,-1,52,-1,-1,-1,-1,-1,-1,-1,-1,-1,-1,-1,-1,-1],"split_conditions":[8.4565055E-1,3.98E-2,4.9475E1,1.1500001E0,7.0999995E-2,1.05000004E-1,6.95E-2,-1.501226E-1,1.5526125E-1,6E-2,2.5E-2,1.898E1,7.245E0,1E-2,2.5145E1,4.95E-2,-1.02573E-1,4.4E-1,-1.3868997E-1,4.365E1,2E-2,5.65E-1,2.8E-1,4E-2,4.9675E1,-1.1024671E-1,7.9653794E-1,2.2079325E-1,6.1965466E-1,3.35E-1,-1.2404657E-1,3.34927E1,-1.0235386E-1,1.2530001E1,2.7400002E1,1.9583803E-1,-9.8708384E-2,-1.6478935E-1,3.6867587E-3,5.535585E1,-1.4901218E-1,6.82904E-2,-1.483165E-1,-7.197383E-2,3.5198063E-1,7.6324683E-1,-9.7381294E-2,5.255696E-2,6.129316E-1,2.1898682E-1,-1.1717158E-1,5.0978154E-1,-7.6812364E-2],"split_indices":[20,50,0,1,50,24,51,0,0,10,0,4,20,10,14,50,0,50,0,48,10,22,25,1,0,0,0,0,0,50,0,20,0,14,4,0,0,0,0,0,0,0,0,0,0,0,0,0,0,0,0,0,0],"split_type":[0,0,0,0,0,0,0,0,0,0,0,0,0,0,0,0,0,0,0,0,0,0,0,0,0,0,0,0,0,0,0,0,0,0,0,0,0,0,0,0,0,0,0,0,0,0,0,0,0,0,0,0,0],"sum_hessian":[3.2072638E2,1.0099954E2,2.1972682E2,7.041583E1,3.058371E1,1.6719458E2,5.2532253E1,6.930067E1,1.1151674E0,6.154859E0,2.442885E1,1.5020625E2,1.6988323E1,4.8823963E1,3.7082906E0,4.1048045E0,2.0500546E0,1.473474E1,9.694109E0,1.4386292E1,1.3581996E2,5.630545E0,1.1357778E1,7.780116E0,4.1043846E1,2.6570997E0,1.051191E0,1.8069161E0,2.2978883E0,1.0376514E1,4.3582263E0,1.230986E1,2.0764325E0,7.786381E0,1.2803358E2,3.8444796E0,1.7860656E0,1.0342247E1,1.0155305E0,2.0401056E0,5.7400107E0,1.0442892E0,3.9999557E1,8.109203E0,2.2673104E0,1.0795771E1,1.5140896E0,1.1208339E0,6.665547E0,1.2586483E2,2.1687498E0,1.011644E0,1.0284616E0],"tree_param":{"num_deleted":"0","num_feature":"255","num_nodes":"53","size_leaf_vector":"0"}},{"base_weights":[2.8745982E-1,5.1257455E-1,-5.2206767E-1,6.085149E-1,-5.3802365E-1,-5.3420085E-1,-1.2415621E-1,6.63747E-1,-4.4602785E-1,-4.8544866E-1,-8.981609E-1,-7.500753E-1,-4.987901E-1,2.4564709E-1,-3.3329636E-1,6.8766147E-1,-4.2859724E-1,-4.7203046E-1,-4.174582E-2,-4.2297903E-1,-9.817812E-1,-4.4538002E-2,-5.0423723E-1,6.2402195E-1,9.886654E-1,-3.211889E-1,-1.2017751E0,5.194702E-1,8.076253E-1,1.547212E0,7.188641E-1],"categories":[],"categories_nodes":[],"categories_segments":[],"categories_sizes":[],"default_left":[1,1,1,1,1,1,1,1,1,0,0,1,1,0,0,1,0,0,0,0,1,0,0,1,1,0,0,0,0,0,0],"id":36,"left_children":[1,3,5,7,9,11,13,15,17,-1,-1,19,21,-1,-1,23,-1,-1,-1,-1,25,-1,-1,27,29,-1,-1,-1,-1,-1,-1],"loss_changes":[7.475993E1,3.2615326E1,3.6545753E-1,1.741983E1,8.1567764E-2,2.869835E-1,3.8730174E-1,7.603035E0,1.4039803E-1,0E0,0E0,3.5796547E-1,1.6876984E-1,0E0,0E0,4.6347504E0,0E0,0E0,0E0,0E0,3.718853E-1,0E0,0E0,3.9767761E0,5.840328E0,0E0,0E0,0E0,0E0,0E0,0E0],"parents":[2147483647,0,0,1,1,2,2,3,3,4,4,5,5,6,6,7,7,8,8,11,11,12,12,15,15,20,20,23,23,24,24],"right_children":[2,4,6,8,10,12,14,16,18,-1,-1,20,22,-1,-1,24,-1,-1,-1,-1,26,-1,-1,28,30,-1,-1,-1,-1,-1,-1],"split_conditions":[1.255E0,2.5E-2,5.8445E1,2.5749998E0,2.37705E1,1.5E-2,2.7436E-1,1.18808E1,1.7500001E-1,-1.456346E-1,-2.6944828E-1,2.41829E1,2.025E0,7.369413E-2,-9.9988915E-2,6.111E1,-1.2857918E-1,-1.4160915E-1,-1.2523746E-2,-1.2689371E-1,6.227105E0,-1.3361401E-2,-1.5127118E-1,1.7950001E-1,6.5729996E1,-9.6356675E-2,-3.6053252E-1,1.5584107E-1,2.4228759E-1,4.6416363E-1,2.1565923E-1],"split_indices":[14,32,0,24,4,10,2,22,15,0,0,4,10,0,0,0,0,0,0,0,20,0,0,50,0,0,0,0,0,0,0],"split_type":[0,0,0,0,0,0,0,0,0,0,0,0,0,0,0,0,0,0,0,0,0,0,0,0,0,0,0,0,0,0,0],"sum_hessian":[4.0776727E2,3.1933334E2,8.8433914E1,2.9299765E2,2.6335686E1,8.548479E1,2.9491286E0,2.7876767E2,1.42299795E1,2.5029661E1,1.3060249E0,9.202361E0,7.6282425E1,1.0022987E0,1.9468299E0,2.7315796E2,5.6097226E0,1.3212595E1,1.0173848E0,4.987322E0,4.2150397E0,1.0126386E0,7.526978E1,2.2802177E2,4.5136177E1,1.6676004E0,2.547439E0,1.477282E2,8.029359E1,1.3159193E1,3.1976984E1],"tree_param":{"num_deleted":"0","num_feature":"255","num_nodes":"31","size_leaf_vector":"0"}},{"base_weights":[-1.9601156E-1,3.3286643E-1,-5.0287086E-1,-3.4453106E-1,9.066056E-1,-4.612273E-1,1.7344502E0,1.1668388E0,-5.719045E-2,-4.8760268E-1,-2.4878706E-1,1.0203424E0,2.1295357E0,3.2851756E-1,-4.114333E-1,1.1026993E-1,-3.9388937E-1,7.4227816E-1,1.3762816E0,8.909608E-1,-1.3714954E-1],"categories":[],"categories_nodes":[],"categories_segments":[],"categories_sizes":[],"default_left":[1,1,0,1,1,1,0,1,1,0,1,1,0,0,0,0,0,1,0,0,0],"id":37,"left_children":[1,3,-1,5,7,9,-1,11,13,-1,15,17,-1,-1,-1,-1,-1,19,-1,-1,-1],"loss_changes":[3.1861614E1,2.8414669E1,0E0,9.020315E0,9.954872E0,6.288004E-2,0E0,2.2117462E0,1.4106559E0,0E0,3.3895767E-1,1.8390846E0,0E0,0E0,0E0,0E0,0E0,2.527772E0,0E0,0E0,0E0],"parents":[2147483647,0,0,1,1,3,3,4,4,5,5,7,7,8,8,10,10,11,11,17,17],"right_children":[2,4,-1,6,8,10,-1,12,14,-1,16,18,-1,-1,-1,-1,-1,20,-1,-1,-1],"split_conditions":[5E-3,3.65E-2,-1.5086126E-1,7.7240005E1,3.85E-1,1.9499999E-2,5.203351E-1,1.5E-3,4.4E-1,-1.4628081E-1,2.05E-2,3.05E-1,6.388607E-1,9.8555274E-2,-1.2343E-1,3.308098E-2,-1.1816681E-1,2.8149998E-1,4.128845E-1,2.6728827E-1,-4.1144863E-2],"split_indices":[4,50,0,0,50,50,0,51,50,0,50,50,0,0,0,0,0,50,0,0,0],"split_type":[0,0,0,0,0,0,0,0,0,0,0,0,0,0,0,0,0,0,0,0,0],"sum_hessian":[1.942924E2,7.130761E1,1.229848E2,3.288304E1,3.8424572E1,3.1872156E1,1.0108827E0,3.0089485E1,8.335086E0,2.719992E1,4.6722364E0,2.7903246E1,2.1862397E0,4.025091E0,4.309994E0,1.4138085E0,3.258428E0,1.7397505E1,1.050574E1,1.4870305E1,2.5272002E0],"tree_param":{"num_deleted":"0","num_feature":"255","num_nodes":"21","size_leaf_vector":"0"}},{"base_weights":[3.316471E-1,7.889962E-1,-5.0906885E-1,9.569095E-1,-2.503554E-1,5.9726584E-1,1.7319025E0,-5.021589E-1,6.480843E-1,-3.9139685E-1,7.880574E-1,3.2938533E0,8.660962E-1,-4.7960186E-1,4.2559126E-1,7.1190274E-1,1.2041856E0,4.5002246E0,7.806383E-1,9.9007535E-1,6.361778E-1,7.3224705E-1,-3.121068E-1,1.9629036E0,5.075986E0,1.2524866E0,-1.14699334E-1],"categories":[],"categories_nodes":[],"categories_segments":[],"categories_sizes":[],"default_left":[1,1,0,1,1,1,1,0,0,1,1,1,1,0,0,1,0,1,1,0,0,0,0,0,0,0,0],"id":38,"left_children":[1,3,-1,5,7,9,11,-1,-1,13,15,17,19,-1,-1,21,-1,23,25,-1,-1,-1,-1,-1,-1,-1,-1],"loss_changes":[1.3181152E2,3.89386E1,0E0,5.223207E1,7.482026E0,2.5218868E1,7.835489E1,0E0,0E0,1.7916968E0,2.661293E0,6.0333817E1,5.1008034E-1,0E0,0E0,2.2347374E0,0E0,1.0516235E1,3.5401764E0,0E0,0E0,0E0,0E0,0E0,0E0,0E0,0E0],"parents":[2147483647,0,0,1,1,3,3,4,4,5,5,6,6,9,9,10,10,11,11,12,12,15,15,17,17,18,18],"right_children":[2,4,-1,6,8,10,12,-1,-1,14,16,18,20,-1,-1,22,-1,24,26,-1,-1,-1,-1,-1,-1,-1,-1],"split_conditions":[2.6115E1,7.0999995E-2,-1.5272066E-1,8.5E-3,5.6172002E-2,9.5000005E-1,1.45E-1,-1.5064767E-1,1.944253E-1,7.0000003E-4,1.1174999E1,3.75E-2,3.0349998E0,-1.4388056E-1,1.2767738E-1,9.3965E1,3.612557E-1,1.45E-2,5.0499998E-2,2.970226E-1,1.9085334E-1,2.1967413E-1,-9.363204E-2,5.888711E-1,1.5227958E0,3.7574598E-1,-3.4409802E-2],"split_indices":[0,50,0,50,2,4,4,0,0,50,6,50,8,0,0,4,0,50,50,0,0,0,0,0,0,0,0],"split_type":[0,0,0,0,0,0,0,0,0,0,0,0,0,0,0,0,0,0,0,0,0,0,0,0,0,0,0],"sum_hessian":[3.4076758E2,2.207443E2,1.20023285E2,1.901102E2,3.0634083E1,1.3106076E2,5.904945E1,2.4272394E1,6.361687E0,2.1030642E1,1.1003011E2,2.005857E1,3.899088E1,1.9354069E1,1.6765728E0,9.530021E1,1.4729903E1,1.30187845E1,7.0397863E0,2.3183441E1,1.5807437E1,9.372311E1,1.5771062E0,3.2232935E0,9.795491E0,4.34896E0,2.6908267E0],"tree_param":{"num_deleted":"0","num_feature":"255","num_nodes":"27","size_leaf_vector":"0"}},{"base_weights":[-9.944437E-3,-4.3635795E-1,5.62572E-1,-4.9130455E-1,-2.8693056E-1,-5.0628847E-1,8.8274336E-1,1.5120824E-1,-4.8815447E-1,1.086099E0,-4.5835128E-1,7.856578E-1,-3.2154965E-1,8.9745015E-1,3.1540313E0,1.117995E0,2.2450717E-1,-4.3615383E-1,2.3682722E-1,9.971569E-1,-4.8208445E-1,1.4586341E0,3.8994672E0,-2.7192137E-1,5.8608127E-1,-3.6923993E-1,1.0654624E0],"categories":[],"categories_nodes":[],"categories_segments":[],"categories_sizes":[],"default_left":[1,1,1,0,1,0,1,1,0,1,0,1,1,1,1,0,1,0,0,1,0,0,0,0,0,0,0],"id":39,"left_children":[1,3,5,-1,7,-1,9,11,-1,13,-1,15,17,19,21,-1,23,-1,-1,25,-1,-1,-1,-1,-1,-1,-1],"loss_changes":[5.703384E1,9.5827293E-1,3.4577698E1,0E0,3.4591959E0,0E0,2.1527115E1,4.106439E0,0E0,2.3405907E1,0E0,8.2627296E-1,6.198416E-1,9.150269E0,9.150772E-1,0E0,7.6963115E-1,0E0,0E0,5.909954E0,0E0,0E0,0E0,0E0,0E0,0E0,0E0],"parents":[2147483647,0,0,1,1,2,2,4,4,6,6,7,7,9,9,11,11,12,12,13,13,14,14,16,16,19,19],"right_children":[2,4,6,-1,8,-1,10,12,-1,14,-1,16,18,20,22,-1,24,-1,-1,26,-1,-1,-1,-1,-1,-1,-1],"split_conditions":[5.75E-1,5.0499998E-2,1.14999995E-1,-1.4739136E-1,1.4649999E-1,-1.5188655E-1,4.995E0,1E-2,-1.4644635E-1,1.6575E1,-1.375054E-1,8.7E-2,1.565E0,3.065E0,1.63E0,3.3539852E-1,9.95E-2,-1.3084616E-1,7.104817E-2,6.7499995E-1,-1.4462534E-1,4.3759027E-1,1.1698402E0,-8.1576414E-2,1.7582439E-1,-1.10771984E-1,3.1963873E-1],"split_indices":[2,50,24,0,50,0,48,10,0,10,0,50,24,22,22,0,50,0,0,20,0,0,0,0,0,0,0],"split_type":[0,0,0,0,0,0,0,0,0,0,0,0,0,0,0,0,0,0,0,0,0,0,0,0,0,0,0],"sum_hessian":[2.3161642E2,1.3288255E2,9.8733864E1,9.5483864E1,3.73987E1,2.262413E1,7.610973E1,1.1848561E1,2.5550138E1,6.625357E1,9.856161E0,4.7765217E0,7.072039E0,6.2028915E1,4.224656E0,2.3766458E0,2.399876E0,6.0493326E0,1.0227069E0,5.810642E1,3.9224994E0,2.1932187E0,2.0314374E0,1.1158308E0,1.2840452E0,2.5566616E0,5.5549755E1],"tree_param":{"num_deleted":"0","num_feature":"255","num_nodes":"27","size_leaf_vector":"0"}},{"base_weights":[3.040737E-1,5.4552907E-1,-5.0284284E-1,6.0752183E-1,-4.9191517E-1,6.2387353E-1,-7.186003E-1,6.3448024E-1,-4.0207878E-1],"categories":[],"categories_nodes":[],"categories_segments":[],"categories_sizes":[],"default_left":[1,1,0,1,0,1,0,0,0],"id":40,"left_children":[1,3,-1,5,-1,7,-1,-1,-1],"loss_changes":[1.0913127E2,2.7987E1,0E0,9.267044E0,0E0,4.632599E0,0E0,0E0,0E0],"parents":[2147483647,0,0,1,1,3,3,5,5],"right_children":[2,4,-1,6,-1,8,-1,-1,-1],"split_conditions":[1E-2,2E-4,-1.5085286E-1,1.9E0,-1.4757456E-1,2.5E-2,-2.1558009E-1,1.9034408E-1,-1.2062364E-1],"split_indices":[0,50,0,32,0,4,0,0,0],"split_type":[0,0,0,0,0,0,0,0,0],"sum_hessian":[5.5771545E2,4.2951477E2,1.2820068E2,4.0568723E2,2.3827557E1,4.0126895E2,4.4182777E0,3.975406E2,3.7283664E0],"tree_param":{"num_deleted":"0","num_feature":"255","num_nodes":"9","size_leaf_vector":"0"}},{"base_weights":[-1.8656054E-1,-3.9354104E-1,4.9394086E-1,-4.8784545E-1,-9.576777E-2,-5.243004E-1,7.592514E-1,-5.025915E-1,-3.5641006E-1,5.7326853E-1,-4.8701528E-1,7.9792345E-1,-3.024481E-1,-1.268077E-1,-4.60884E-1,1.4055904E0,-4.44674E-1,2.3294508E-1,-2.371031E-1,1.8587593E0,6.162636E-1,-3.6075443E-1,-2.9449841E-2,1.0599692E-2,9.595206E-1],"categories":[],"categories_nodes":[],"categories_segments":[],"categories_sizes":[],"default_left":[1,1,1,1,1,0,1,0,1,1,0,0,0,1,0,1,0,0,1,0,1,0,0,0,0],"id":41,"left_children":[1,3,5,7,9,-1,11,-1,13,15,-1,-1,-1,17,-1,19,-1,-1,21,-1,23,-1,-1,-1,-1],"loss_changes":[3.0939621E1,4.6690044E0,1.4270776E1,6.75869E-2,1.11777315E1,0E0,1.9307003E0,0E0,3.320489E-1,1.40312E1,0E0,0E0,0E0,3.1197277E-1,0E0,2.0543213E0,0E0,0E0,1.2925535E-1,0E0,9.7914517E-1,0E0,0E0,0E0,0E0],"parents":[2147483647,0,0,1,1,2,2,3,3,4,4,6,6,8,8,9,9,13,13,15,15,18,18,20,20],"right_children":[2,4,6,8,10,-1,12,-1,14,16,-1,-1,-1,18,-1,20,-1,-1,22,-1,24,-1,-1,-1,-1],"split_conditions":[7.339875E0,1.3049999E-1,4.2000002E-1,4.75E-2,2.5E-2,-1.5729013E-1,1.075E0,-1.5077746E-1,1E-2,2.8649998E-1,-1.4610459E-1,2.3937704E-1,-9.073443E-2,5.35E-2,-1.382652E-1,2.075E-1,-1.334022E-1,6.9883525E-2,8.7E-2,5.576278E-1,2.22E-1,-1.0822634E-1,-8.8349525E-3,3.1799078E-3,2.878562E-1],"split_indices":[24,50,14,50,0,0,20,0,10,50,0,0,0,50,0,50,0,0,50,0,50,0,0,0,0],"split_type":[0,0,0,0,0,0,0,0,0,0,0,0,0,0,0,0,0,0,0,0,0,0,0,0,0],"sum_hessian":[2.1728273E2,1.6693092E2,5.0351818E1,1.262951E2,4.063582E1,1.020596E1,4.014586E1,1.11016075E2,1.5279027E1,1.48230505E1,2.5812767E1,3.8974667E1,1.1711907E0,5.470432E0,9.808596E0,7.9455485E0,6.877502E0,1.0226903E0,4.4477415E0,4.1868973E0,3.7586515E0,2.3256147E0,2.1221268E0,1.7325362E0,2.0261154E0],"tree_param":{"num_deleted":"0","num_feature":"255","num_nodes":"25","size_leaf_vector":"0"}},{"base_weights":[-1.9023974E-1,-4.5476434E-1,7.747644E-1,-4.8381764E-1,8.1494373E-1,2.0470824E0,6.160386E-1,-4.7386003E-1,-8.18828E-1,-4.8060986E-1,8.423662E-1,-3.820154E-1,-5.025768E-1,-2.4520685E-1,-4.9043798E-1,-4.7912663E-1,2.0408185E0],"categories":[],"categories_nodes":[],"categories_segments":[],"categories_sizes":[],"default_left":[1,1,1,1,0,0,1,1,0,0,0,1,0,1,0,0,0],"id":42,"left_children":[1,3,5,7,-1,-1,9,11,-1,-1,-1,13,-1,15,-1,-1,-1],"loss_changes":[5.559587E1,6.683319E0,8.2164E0,1.7008209E-1,0E0,0E0,1.111603E1,2.4277878E-1,0E0,0E0,0E0,5.239873E-1,0E0,1.2315847E1,0E0,0E0,0E0],"parents":[2147483647,0,0,1,1,2,2,3,3,6,6,7,7,11,11,13,13],"right_children":[2,4,6,8,-1,-1,10,12,-1,-1,-1,14,-1,16,-1,-1,-1],"split_conditions":[2.7955E1,2.7075E1,3E-2,6.0915E1,2.4448313E-1,6.141248E-1,3.1425E1,2.5E-2,-2.456484E-1,-1.4418297E-1,2.5270987E-1,7.5000003E-3,-1.5077305E-1,2.5E-3,-1.471314E-1,-1.43738E-1,6.1224556E-1],"split_indices":[10,6,14,2,0,0,2,0,0,0,0,50,0,50,0,0,0],"split_type":[0,0,0,0,0,0,0,0,0,0,0,0,0,0,0,0,0],"sum_hessian":[2.1541444E2,1.6948451E2,4.592994E1,1.6629825E2,3.1862621E0,3.7748024E0,4.2155136E1,1.6384277E2,2.4554744E0,7.019467E0,3.513567E1,4.2432903E1,1.2140987E2,2.0202633E1,2.2230272E1,1.9044313E1,1.1583177E0],"tree_param":{"num_deleted":"0","num_feature":"255","num_nodes":"17","size_leaf_vector":"0"}},{"base_weights":[-1.522756E-1,-4.8468167E-1,5.5347073E-1,-4.9089724E-1,-1.2135729E-1,-4.6893096E-1,7.7504736E-1,-3.320788E-1,2.4703419E-1,8.9807546E-1,-3.937238E-1,3.3479772E0,7.669044E-1,1.5027139E-1,-5.82501E-1,1.4679013E0,7.0987475E-1,7.2872835E-1,1.9943103E-1],"categories":[],"categories_nodes":[],"categories_segments":[],"categories_sizes":[],"default_left":[1,1,1,0,1,0,1,0,0,1,1,0,1,0,0,0,1,0,0],"id":43,"left_children":[1,3,5,-1,7,-1,9,-1,-1,11,13,-1,15,-1,-1,-1,17,-1,-1],"loss_changes":[5.3331005E1,2.8887177E-1,1.6876078E1,0E0,3.866218E-1,0E0,9.021961E0,0E0,0E0,1.5058056E1,7.485273E-1,0E0,1.0910759E0,0E0,0E0,0E0,3.4817123E-1,0E0,0E0],"parents":[2147483647,0,0,1,1,2,2,4,4,6,6,9,9,10,10,12,12,16,16],"right_children":[2,4,6,-1,8,-1,10,-1,-1,12,14,-1,16,-1,-1,-1,18,-1,-1],"split_conditions":[4.30587E0,6.65E-2,1.5735001E1,-1.4726917E-1,4.035E1,-1.406793E-1,1.3E-1,-9.962365E-2,7.411026E-2,6.0550003E0,1.55E-1,1.0043932E0,1.7425E1,4.5081418E-2,-1.747503E-1,4.403704E-1,6.807E1,2.1861851E-1,5.9829313E-2],"split_indices":[24,16,4,0,0,0,14,0,0,24,2,0,4,0,0,0,0,0,0],"split_type":[0,0,0,0,0,0,0,0,0,0,0,0,0,0,0,0,0,0,0],"sum_hessian":[2.2518938E2,1.5329892E2,7.189046E1,1.5037524E2,2.923673E0,1.2606244E1,5.928421E1,1.9225416E0,1.0011314E0,5.3847664E1,5.4365463E0,1.4902519E0,5.2357414E1,1.4531139E0,3.9834325E0,2.077836E0,5.027958E1,4.807621E1,2.203369E0],"tree_param":{"num_deleted":"0","num_feature":"255","num_nodes":"19","size_leaf_vector":"0"}},{"base_weights":[-4.814033E-1,-5.0425816E-1,-3.160625E-2,-4.4691452E-1,1.7417887E0],"categories":[],"categories_nodes":[],"categories_segments":[],"categories_sizes":[],"default_left":[1,0,1,0,0],"id":44,"left_children":[1,-1,3,-1,-1],"loss_changes":[1.7700653E0,0E0,7.751483E0,0E0,0E0],"parents":[2147483647,0,0,2,2],"right_children":[2,-1,4,-1,-1],"split_conditions":[1.0415E1,-1.5127745E-1,4.5E-2,-1.3407436E-1,5.2253664E-1],"split_indices":[24,0,20,0,0],"split_type":[0,0,0,0,0],"sum_hessian":[1.727352E2,1.6426746E2,8.4677515E0,7.467046E0,1.0007051E0],"tree_param":{"num_deleted":"0","num_feature":"255","num_nodes":"5","size_leaf_vector":"0"}},{"base_weights":[-4.229639E-1,-5.0433123E-1,1.7289392E0,-3.6655465E-1,2.50828E0],"categories":[],"categories_nodes":[],"categories_segments":[],"categories_sizes":[],"default_left":[1,0,1,0,0],"id":45,"left_children":[1,-1,3,-1,-1],"loss_changes":[3.2037773E1,0E0,1.1879011E1,0E0,0E0],"parents":[2147483647,0,0,2,2],"right_children":[2,-1,4,-1,-1],"split_conditions":[3.6425E1,-1.5129937E-1,3.4046303E1,-1.099664E-1,7.52484E-1],"split_indices":[20,0,0,0,0],"split_type":[0,0,0,0,0],"sum_hessian":[1.7699408E2,1.7128319E2,5.710894E0,1.6917565E0,4.019138E0],"tree_param":{"num_deleted":"0","num_feature":"255","num_nodes":"5","size_leaf_vector":"0"}},{"base_weights":[-4.6993262E-1,-5.043753E-1,2.7172847E0],"categories":[],"categories_nodes":[],"categories_segments":[],"categories_sizes":[],"default_left":[1,0,0],"id":46,"left_children":[1,-1,-1],"loss_changes":[2.045219E1,0E0,0E0],"parents":[2147483647,0,0],"right_children":[2,-1,-1],"split_conditions":[5.6465E1,-1.5131259E-1,8.151854E-1],"split_indices":[14,0,0],"split_type":[0,0,0],"sum_hessian":[1.7282326E2,1.7180836E2,1.0148964E0],"tree_param":{"num_deleted":"0","num_feature":"255","num_nodes":"3","size_leaf_vector":"0"}},{"base_weights":[-4.4766924E-1,-4.7562617E-1,1.0441073E0,-4.924256E-1,6.593473E-2,-3.0611473E-1,2.230974E0,-5.042861E-1,-8.1066564E-2,1.2284194E0,-4.0999803E-1,7.36252E-1,-4.0273514E-1],"categories":[],"categories_nodes":[],"categories_segments":[],"categories_sizes":[],"default_left":[1,1,1,1,1,0,0,0,1,0,0,0,0],"id":47,"left_children":[1,3,5,7,9,-1,-1,-1,11,-1,-1,-1,-1],"loss_changes":[7.7979507E0,1.6021805E0,6.3455324E0,7.761574E-1,3.8636262E0,0E0,0E0,0E0,1.8436086E0,0E0,0E0,0E0,0E0],"parents":[2147483647,0,0,1,1,2,2,3,3,4,4,8,8],"right_children":[2,4,6,8,10,-1,-1,-1,12,-1,-1,-1,-1],"split_conditions":[3.5500002E-1,1.005E0,3.9499998E-1,8.5E-2,2.8E-1,-9.1834426E-2,6.692922E-1,-1.5128584E-1,1.655E0,3.6852583E-1,-1.22999415E-1,2.208756E-1,-1.20820545E-1],"split_indices":[51,15,15,13,21,0,0,0,20,0,0,0,0],"split_type":[0,0,0,0,0,0,0,0,0,0,0,0,0],"sum_hessian":[1.7406909E2,1.7153557E2,2.533529E0,1.6646257E2,5.073002E0,1.532352E0,1.001177E0,1.6157797E2,4.884597E0,1.0143454E0,4.0586567E0,1.015497E0,3.8690999E0],"tree_param":{"num_deleted":"0","num_feature":"255","num_nodes":"13","size_leaf_vector":"0"}},{"base_weights":[-4.9288282E-1,-5.043467E-1,3.076307E-1,-2.617495E-1,7.412964E-1],"categories":[],"categories_nodes":[],"categories_segments":[],"categories_sizes":[],"default_left":[1,0,1,0,0],"id":48,"left_children":[1,-1,3,-1,-1],"loss_changes":[1.7478218E0,0E0,9.5242536E-1,0E0,0E0],"parents":[2147483647,0,0,2,2],"right_children":[2,-1,4,-1,-1],"split_conditions":[9.35E-1,-1.5130402E-1,6.153905E0,-7.852486E-2,2.2238894E-1],"split_indices":[42,0,10,0,0],"split_type":[0,0,0,0,0],"sum_hessian":[1.7254968E2,1.7047829E2,2.071397E0,1.0669603E0,1.0044369E0],"tree_param":{"num_deleted":"0","num_feature":"255","num_nodes":"5","size_leaf_vector":"0"}},{"base_weights":[-4.8716974E-1,-5.043582E-1,1.044936E0],"categories":[],"categories_nodes":[],"categories_segments":[],"categories_sizes":[],"default_left":[1,0,0],"id":49,"left_children":[1,-1,-1],"loss_changes":[5.1013756E0,0E0,0E0],"parents":[2147483647,0,0],"right_children":[2,-1,-1],"split_conditions":[1.835E0,-1.5130746E-1,3.134808E-1],"split_indices":[42,0,0],"split_type":[0,0,0],"sum_hessian":[1.7270206E2,1.714494E2,1.2526535E0],"tree_param":{"num_deleted":"0","num_feature":"255","num_nodes":"3","size_leaf_vector":"0"}},{"base_weights":[-3.6107478E-1,-3.8781303E-1,2.1530023E0,-1.0110617E-1,-5.0283104E-1,-4.8113674E-1,1.5192619E-1,1.2432903E0,-4.4309944E-1,-4.880594E-1,2.444615E-1],"categories":[],"categories_nodes":[],"categories_segments":[],"categories_sizes":[],"default_left":[1,1,0,1,0,0,1,0,1,0,0],"id":50,"left_children":[1,3,-1,5,-1,-1,7,-1,9,-1,-1],"loss_changes":[1.3064409E1,5.91325E0,0E0,5.1727986E0,0E0,0E0,2.171857E1,0E0,7.9420614E-1,0E0,0E0],"parents":[2147483647,0,0,1,1,3,3,6,6,8,8],"right_children":[2,4,-1,6,-1,-1,8,-1,10,-1,-1],"split_conditions":[5.2300003E1,2.5E-2,6.459007E-1,7.0000003E-4,-1.5084931E-1,-1.4434102E-1,1.35E-2,3.729871E-1,9.49E-1,-1.4641783E-1,7.333846E-2],"split_indices":[2,0,0,50,0,0,50,0,50,0,0],"split_type":[0,0,0,0,0,0,0,0,0,0,0],"sum_hessian":[1.8092609E2,1.7985896E2,1.0671321E0,5.203348E1,1.2782548E2,2.0437227E1,3.1596256E1,1.0764011E1,2.0832245E1,1.9825974E1,1.0062724E0],"tree_param":{"num_deleted":"0","num_feature":"255","num_nodes":"11","size_leaf_vector":"0"}},{"base_weights":[-3.2877666E-1,-4.811702E-1,9.083796E-1,-4.0620637E-1,-5.0286686E-1,-3.1512612E-1,-4.8820782E-1,-4.7980696E-1,5.531808E-1],"categories":[],"categories_nodes":[],"categories_segments":[],"categories_sizes":[],"default_left":[1,1,0,1,0,1,0,0,0],"id":51,"left_children":[1,3,-1,5,-1,7,-1,-1,-1],"loss_changes":[3.6802162E1,7.611084E-2,0E0,1.7399883E-1,0E0,3.6425526E0,0E0,0E0,0E0],"parents":[2147483647,0,0,1,1,3,3,5,5],"right_children":[2,4,-1,6,-1,8,-1,-1,-1],"split_conditions":[9.3965E1,1E-2,2.725139E-1,1.75E-2,-1.5086007E-1,2.5E-3,-1.4646235E-1,-1.4394209E-1,1.6595425E-1],"split_indices":[4,0,0,50,0,50,0,0,0],"split_type":[0,0,0,0,0,0,0,0,0],"sum_hessian":[1.9188278E2,1.7138283E2,2.0499956E1,4.289593E1,1.284869E2,2.2617384E1,2.0278547E1,1.9387772E1,3.229612E0],"tree_param":{"num_deleted":"0","num_feature":"255","num_nodes":"9","size_leaf_vector":"0"}},{"base_weights":[-3.563495E-1,-3.9712995E-1,8.5381514E-1,-1.14449695E-1,-5.0273955E-1,-2.1494776E-1,2.9850519E0,-4.81479E-1,1.6526979E-1,-3.7173352E-1,9.388647E-2,1.3088686E0,-1.14987545E-1,2.1183641E-1,-3.9638945E-1,-7.443721E-2,6.497106E-1,-1.16472915E-1,-4.6080434E-1],"categories":[],"categories_nodes":[],"categories_segments":[],"categories_sizes":[],"default_left":[1,1,1,1,0,1,0,0,1,0,0,0,1,1,1,0,0,0,0],"id":52,"left_children":[1,3,5,7,-1,9,-1,-1,11,-1,-1,-1,13,15,17,-1,-1,-1,-1],"loss_changes":[9.236223E0,5.1695023E0,1.4751682E1,5.1015854E0,0E0,2.7983862E-1,0E0,0E0,9.286238E0,0E0,0E0,0E0,2.2740405E0,1.5111083E0,1.8332624E-1,0E0,0E0,0E0,0E0],"parents":[2147483647,0,0,1,1,2,2,3,3,5,5,8,8,12,12,13,13,14,14],"right_children":[2,4,6,8,-1,10,-1,-1,12,-1,-1,-1,14,16,18,-1,-1,-1,-1],"split_conditions":[5.4010002E1,1E-2,3.25E-1,8.5E-3,-1.5082186E-1,9.3965E1,8.955156E-1,-1.444437E-1,1.55E-2,-1.1152006E-1,2.8165942E-2,3.9266062E-1,7.65E-2,4.45E-2,1.22E-1,-2.2331163E-2,1.949132E-1,-3.4941874E-2,-1.382413E-1],"split_indices":[4,0,22,50,0,4,0,0,50,0,0,0,50,50,50,0,0,0,0],"split_type":[0,0,0,0,0,0,0,0,0,0,0,0,0,0,0,0,0,0,0],"sum_hessian":[1.792828E2,1.7408818E2,5.1946316E0,4.7916378E1,1.261718E2,4.058525E0,1.1361066E0,2.041192E1,2.7504456E1,2.556832E0,1.5016929E0,4.6912847E0,2.2813171E1,1.0669121E1,1.214405E1,6.9532347E0,3.7158864E0,2.7971463E0,9.346904E0],"tree_param":{"num_deleted":"0","num_feature":"255","num_nodes":"19","size_leaf_vector":"0"}},{"base_weights":[-4.9862018E-1,-5.042806E-1,-2.310508E-1,2.4490745E-1,-3.940397E-1],"categories":[],"categories_nodes":[],"categories_segments":[],"categories_sizes":[],"default_left":[1,0,1,0,0],"id":53,"left_children":[1,-1,3,-1,-1],"loss_changes":[1.4613342E-1,0E0,5.183728E-1,0E0,0E0],"parents":[2147483647,0,0,2,2],"right_children":[2,-1,4,-1,-1],"split_conditions":[4.6165E1,-1.5128419E-1,5.64E1,7.347224E-2,-1.1821191E-1],"split_indices":[4,0,4,0,0],"split_type":[0,0,0,0,0],"sum_hessian":[1.7241075E2,1.679726E2,4.4381523E0,1.0039185E0,3.434234E0],"tree_param":{"num_deleted":"0","num_feature":"255","num_nodes":"5","size_leaf_vector":"0"}},{"base_weights":[-4.9862018E-1,-5.0437975E-1,-2.1077508E-1,-3.8184047E-1,2.4372363E-1],"categories":[],"categories_nodes":[],"categories_segments":[],"categories_sizes":[],"default_left":[1,0,1,0,0],"id":54,"left_children":[1,-1,3,-1,-1],"loss_changes":[1.8118668E-1,0E0,4.9111098E-1,0E0,0E0],"parents":[2147483647,0,0,2,2],"right_children":[2,-1,4,-1,-1],"split_conditions":[1.7275002E1,-1.5131393E-1,2.63E1,-1.1455215E-1,7.311709E-2],"split_indices":[22,0,4,0,0],"split_type":[0,0,0,0,0],"sum_hessian":[1.7241075E2,1.682911E2,4.119647E0,3.1092455E0,1.0104014E0],"tree_param":{"num_deleted":"0","num_feature":"255","num_nodes":"5","size_leaf_vector":"0"}},{"base_weights":[-4.0581647E-1,-5.042585E-1,9.865818E-1,-3.6887217E-1,1.3880453E0],"categories":[],"categories_nodes":[],"categories_segments":[],"categories_sizes":[],"default_left":[1,0,1,0,0],"id":55,"left_children":[1,-1,3,-1,-1],"loss_changes":[2.534104E1,0E0,7.208598E0,0E0,0E0],"parents":[2147483647,0,0,2,2],"right_children":[2,-1,4,-1,-1],"split_conditions":[2.262E1,-1.5127756E-1,2.744E1,-1.10661656E-1,4.164136E-1],"split_indices":[20,0,4,0,0],"split_type":[0,0,0,0,0],"sum_hessian":[1.8024638E2,1.6894022E2,1.1306165E1,2.6020596E0,8.704105E0],"tree_param":{"num_deleted":"0","num_feature":"255","num_nodes":"5","size_leaf_vector":"0"}},{"base_weights":[-4.3158415E-1,-2.3365162E-1,-5.0284284E-1,-4.8372743E-1,-4.1310894E-3,5.260706E-1,-4.7598445E-1,2.7416524E-1,9.446641E-1,6.432522E-1,-2.0508116E-1,1.4693859E0,2.7132016E-1,-1.3729535E-2,-3.3501583E-1],"categories":[],"categories_nodes":[],"categories_segments":[],"categories_sizes":[],"default_left":[1,1,0,0,1,1,0,1,1,0,1,0,0,0,0],"id":56,"left_children":[1,3,-1,-1,5,7,-1,9,11,-1,13,-1,-1,-1,-1],"loss_changes":[2.377514E0,2.7929544E0,0E0,0E0,6.8549485E0,1.1019051E0,0E0,1.8063372E0,1.1700296E0,0E0,1.1665206E-1,0E0,0E0,0E0,0E0],"parents":[2147483647,0,0,1,1,4,4,5,5,7,7,8,8,10,10],"right_children":[2,4,-1,-1,6,8,-1,10,12,-1,14,-1,-1,-1,-1],"split_conditions":[1E-2,9.5E-3,-1.5085286E-1,-1.4511824E-1,5.0499998E-2,3.9499998E-2,-1.4279534E-1,2.05E-2,4.05E-2,1.9297567E-1,3.0499998E-2,4.4081578E-1,8.139605E-2,-4.1188607E-3,-1.00504756E-1],"split_indices":[0,50,0,0,50,50,0,50,50,0,50,0,0,0,0],"split_type":[0,0,0,0,0,0,0,0,0,0,0,0,0,0,0],"sum_hessian":[1.7589532E2,4.7694645E1,1.2820068E2,2.2295193E1,2.539945E1,1.1906132E1,1.3493319E1,8.466216E0,3.4399152E0,4.589467E0,3.8767493E0,1.268882E0,2.1710331E0,2.0149891E0,1.8617603E0],"tree_param":{"num_deleted":"0","num_feature":"255","num_nodes":"15","size_leaf_vector":"0"}},{"base_weights":[-4.8144317E-1,-5.042089E-1,-9.2075154E-2,1.6689038E0,-4.5566896E-1],"categories":[],"categories_nodes":[],"categories_segments":[],"categories_sizes":[],"default_left":[1,0,1,0,0],"id":57,"left_children":[1,-1,3,-1,-1],"loss_changes":[1.4943085E0,0E0,7.691298E0,0E0,0E0],"parents":[2147483647,0,0,2,2],"right_children":[2,-1,4,-1,-1],"split_conditions":[3.1075E1,-1.5126269E-1,3.2015E1,5.0067115E-1,-1.3670069E-1],"split_indices":[4,0,4,0,0],"split_type":[0,0,0,0,0],"sum_hessian":[1.7281352E2,1.6298885E2,9.824668E0,1.0669807E0,8.757687E0],"tree_param":{"num_deleted":"0","num_feature":"255","num_nodes":"5","size_leaf_vector":"0"}},{"base_weights":[-4.5870188E-1,-4.9863237E-1,3.1069884E0,-5.043261E-1,1.7645428E-1],"categories":[],"categories_nodes":[],"categories_segments":[],"categories_sizes":[],"default_left":[1,1,0,0,0],"id":58,"left_children":[1,3,-1,-1,-1],"loss_changes":[2.637125E1,7.549896E-1,0E0,0E0,0E0],"parents":[2147483647,0,0,1,1],"right_children":[2,4,-1,-1,-1],"split_conditions":[3.5500002E-1,3.532845E1,9.3209654E-1,-1.5129784E-1,5.2936286E-2],"split_indices":[30,20,0,0,0],"split_type":[0,0,0,0,0],"sum_hessian":[1.7333665E2,1.7226767E2,1.0689863E0,1.7107774E2,1.1899289E0],"tree_param":{"num_deleted":"0","num_feature":"255","num_nodes":"5","size_leaf_vector":"0"}},{"base_weights":[-4.986261E-1,-5.0435E-1,-5.9105247E-2,-2.9266596E-1,2.4624752E-1],"categories":[],"categories_nodes":[],"categories_segments":[],"categories_sizes":[],"default_left":[1,0,1,0,0],"id":59,"left_children":[1,-1,3,-1,-1],"loss_changes":[4.0654373E-1,0E0,3.1187895E-1,0E0,0E0],"parents":[2147483647,0,0,2,2],"right_children":[2,-1,4,-1,-1],"split_conditions":[3.45E-1,-1.51305E-1,2.81E0,-8.779979E-2,7.387426E-2],"split_indices":[25,0,22,0,0],"split_type":[0,0,0,0,0],"sum_hessian":[1.7244806E2,1.7008553E2,2.3625355E0,1.3621733E0,1.0003622E0],"tree_param":{"num_deleted":"0","num_feature":"255","num_nodes":"5","size_leaf_vector":"0"}},{"base_weights":[-3.7152028E-1,-5.043038E-1,7.9569405E-1,-3.7503016E-1,1.0166951E0],"categories":[],"categories_nodes":[],"categories_segments":[],"categories_sizes":[],"default_left":[1,0,1,0,0],"id":60,"left_children":[1,-1,3,-1,-1],"loss_changes":[2.9529774E1,0E0,5.4484243E0,0E0,0E0],"parents":[2147483647,0,0,2,2],"right_children":[2,-1,4,-1,-1],"split_conditions":[2.81285E1,-1.5129115E-1,7.1821304E1,-1.1250905E-1,3.0500856E-1],"split_indices":[24,0,0,0,0],"split_type":[0,0,0,0,0],"sum_hessian":[1.8694173E2,1.6835718E2,1.8584549E1,2.8404863E0,1.5744063E1],"tree_param":{"num_deleted":"0","num_feature":"255","num_nodes":"5","size_leaf_vector":"0"}},{"base_weights":[-4.986224E-1,-5.043661E-1,2.3732504E-1],"categories":[],"categories_nodes":[],"categories_segments":[],"categories_sizes":[],"default_left":[1,0,0],"id":61,"left_children":[1,-1,-1],"loss_changes":[8.527794E-1,0E0,0E0],"parents":[2147483647,0,0],"right_children":[2,-1,-1],"split_conditions":[3.785E1,-1.5130983E-1,7.119752E-2],"split_indices":[24,0,0],"split_type":[0,0,0],"sum_hessian":[1.7242389E2,1.7140085E2,1.02303E0],"tree_param":{"num_deleted":"0","num_feature":"255","num_nodes":"3","size_leaf_vector":"0"}},{"base_weights":[5.6402653E-1,6.0158527E-1,-2.194346E-2,3.2136756E-1,6.665976E-1,-3.792247E-1,5.875218E-1,1.1699757E-1,6.9697464E-1,6.573637E-1,2.63249E0,-4.8218682E-1,1.6807139E0,-2.853271E-1,4.1299036E-1,6.639576E-1,-9.706889E-1,-5.083174E-1,-1.1725811E-1,-4.3472773E-1,7.2285634E-1,5.581014E-1,2.8209584E-2,7.280533E-1,5.0299686E-1,2.4227847E-1,-3.334994E-1,-4.7981432E-1,7.4003893E-1,5.8381253E-1,-1.0670785E-1,-4.7636923E-1,5.4761565E-1,6.8545526E-1,1.2404397E0,-6.8990654E-1,5.571091E-1],"categories":[],"categories_nodes":[],"categories_segments":[],"categories_sizes":[],"default_left":[1,1,1,1,1,1,0,1,0,1,0,1,0,1,1,1,0,0,1,1,0,1,1,1,1,0,0,0,0,0,0,0,0,0,0,0,0],"id":62,"left_children":[1,3,5,7,9,11,-1,13,-1,15,-1,17,-1,19,21,23,-1,-1,25,27,-1,29,31,33,35,-1,-1,-1,-1,-1,-1,-1,-1,-1,-1,-1,-1],"loss_changes":[2.1656158E1,1.6622406E1,1.3331511E1,1.3426567E1,1.1870056E1,8.988815E0,0E0,1.383234E1,0E0,8.664246E0,0E0,2.9800034E-1,0E0,7.75595E0,3.7118292E0,7.316162E0,0E0,0E0,3.7667942E-1,2.6672745E0,0E0,8.90007E-1,5.328291E0,1.0725037E1,1.4282524E1,0E0,0E0,0E0,0E0,0E0,0E0,0E0,0E0,0E0,0E0,0E0,0E0],"parents":[2147483647,0,0,1,1,2,2,3,3,4,4,5,5,7,7,9,9,11,11,13,13,14,14,15,15,18,18,19,19,21,21,22,22,23,23,24,24],"right_children":[2,4,6,8,10,12,-1,14,-1,16,-1,18,-1,20,22,24,-1,-1,26,28,-1,30,32,34,36,-1,-1,-1,-1,-1,-1,-1,-1,-1,-1,-1,-1],"split_conditions":[1.9265E1,4.3305E1,4.5935E1,4.4E-1,2.95E-1,1.7535E1,1.7625654E-1,2.3424599E1,2.090924E-1,9.8825E1,7.89747E-1,6.65E-1,5.0421417E-1,1.9E0,9.38182E0,5E-5,-2.912067E-1,-1.5249524E-1,3.5E-2,3.9E-1,2.1685691E-1,1E-2,4.1665E1,7.5E-3,4.6775E-3,7.268354E-2,-1.0004982E-1,-1.4394431E-1,2.2201169E-1,1.7514376E-1,-3.2012355E-2,-1.4291078E-1,1.642847E-1,2.0563659E-1,3.721319E-1,-2.0697197E-1,1.6713274E-1],"split_indices":[14,0,48,50,16,20,0,0,0,0,0,22,0,32,10,50,0,0,9,5,0,9,48,9,2,0,0,0,0,0,0,0,0,0,0,0,0],"split_type":[0,0,0,0,0,0,0,0,0,0,0,0,0,0,0,0,0,0,0,0,0,0,0,0,0,0,0,0,0,0,0,0,0,0,0,0,0],"sum_hessian":[9.823985E2,9.231979E2,5.920059E1,1.7497206E2,7.482258E2,3.755994E1,2.1640646E1,1.1416546E2,6.0806606E1,7.4605597E2,2.169869E0,3.6501408E1,1.0585324E0,4.840609E1,6.575937E1,7.436363E2,2.4196653E0,3.369572E1,2.8056898E0,4.2654076E1,5.7520175E0,4.7424057E1,1.8335314E1,5.2933E2,2.1430626E2,1.0084946E0,1.7971953E0,4.164725E1,1.0068214E0,4.577555E1,1.6485064E0,9.342433E0,8.992881E0,4.9085947E2,3.8470573E1,8.789625E0,2.0551663E2],"tree_param":{"num_deleted":"0","num_feature":"255","num_nodes":"37","size_leaf_vector":"0"}},{"base_weights":[1.7399707E-1,-4.2067015E-1,5.773105E-1,-4.775457E-1,4.6606022E-1,6.2421364E-1,-4.5931956E-1,-4.8556966E-1,6.322743E-3,-3.893375E-1,1.1195468E0,-9.6549815E-1,6.48321E-1,4.2671055E-1,1.7401721E0,7.9908234E-1,6.089271E-1,1.9198408E0,6.6606796E-1],"categories":[],"categories_nodes":[],"categories_segments":[],"categories_sizes":[],"default_left":[1,1,1,1,1,1,0,0,0,0,1,0,1,0,0,1,0,0,0],"id":63,"left_children":[1,3,5,7,9,11,-1,-1,-1,-1,13,-1,15,-1,-1,17,-1,-1,-1],"loss_changes":[7.536456E1,6.635647E0,9.381779E0,4.689312E-1,5.0031695E0,7.500717E0,0E0,0E0,0E0,0E0,1.3601103E0,0E0,5.6643677E-1,0E0,0E0,3.7197304E0,0E0,0E0,0E0],"parents":[2147483647,0,0,1,1,2,2,3,3,4,4,5,5,10,10,12,12,15,15],"right_children":[2,4,6,8,10,12,-1,-1,-1,-1,14,-1,16,-1,-1,18,-1,-1,-1],"split_conditions":[2.7165E1,3.705E1,4.6735E1,7E-3,1.8465E1,1.7755E1,-1.3779588E-1,-1.456709E-1,1.8968229E-3,-1.16801254E-1,4.2805E1,-2.8964946E-1,3.7605E1,1.2801316E-1,5.220517E-1,2.4385E1,1.8267813E-1,5.759523E-1,1.998204E-1],"split_indices":[14,10,0,17,0,0,0,0,0,0,10,0,14,0,0,10,0,0,0],"split_type":[0,0,0,0,0,0,0,0,0,0,0,0,0,0,0,0,0,0,0],"sum_hessian":[3.1221942E2,1.2615969E2,1.8605974E2,1.1898909E2,7.170595E0,1.7838635E2,7.673385E0,1.1704464E2,1.9444544E0,3.2805936E0,3.8900015E0,2.081417E0,1.7630493E2,2.6354556E0,1.2545459E0,3.252949E1,1.4377545E2,2.0259361E0,3.0503557E1],"tree_param":{"num_deleted":"0","num_feature":"255","num_nodes":"19","size_leaf_vector":"0"}},{"base_weights":[2.9973483E-1,4.6050543E-1,-4.3519098E-1,1.3664557E-1,6.190753E-1,-4.5325813E-1,3.7120143E-1,-2.0893991E-1,5.429575E-1,-4.7039708E-1,6.997846E-1,-4.6791613E-1,2.4358454E-1,-2.7815035E-1,4.772533E-1,7.970758E-1,-4.6029305E-1,-7.073461E-1,6.6598266E-1,7.424956E-1,-4.4948345E-1,-4.9812114E-1,-6.360057E-2,-4.2681774E-1,1.607692E-2,9.5406544E-1,-3.256723E-1,9.021749E-1,-3.9493087E-1,-4.6742988E-1,-1.1762005E0,1.1228045E0,6.0568625E-1,-3.3481848E-1,5.928594E-1,-4.5854858E-1,1.0141101E-1,7.118773E-1,-1.4565238E-1,5.9836614E-1,1.2248877E0,1.7711439E0,7.566591E-1,5.792957E-1,1.2065331E0,-3.9582333E-1,-5.860382E-2],"categories":[],"categories_nodes":[],"categories_segments":[],"categories_sizes":[],"default_left":[1,1,1,1,1,1,0,1,1,1,1,1,0,1,1,1,0,1,0,1,0,0,1,1,1,0,0,1,0,0,0,1,1,1,0,0,0,0,0,0,0,0,0,0,0,0,0],"id":64,"left_children":[1,3,5,7,9,11,-1,13,15,17,19,21,-1,23,25,27,-1,29,-1,31,-1,-1,33,35,37,-1,-1,39,-1,-1,-1,41,43,45,-1,-1,-1,-1,-1,-1,-1,-1,-1,-1,-1,-1,-1],"loss_changes":[4.3594303E1,1.5415649E1,1.1361599E0,1.4223994E1,1.8120811E1,7.822952E-1,0E0,2.7460217E0,1.2213012E1,4.3898287E0,9.600479E0,7.550888E-1,0E0,2.2209144E0,2.3817914E0,5.046831E0,0E0,8.5937166E-1,0E0,8.809998E0,0E0,0E0,1.1999433E0,6.1071587E-1,2.124089E0,0E0,0E0,2.6702938E0,0E0,0E0,0E0,9.836891E0,1.4625282E0,5.464101E-2,0E0,0E0,0E0,0E0,0E0,0E0,0E0,0E0,0E0,0E0,0E0,0E0,0E0],"parents":[2147483647,0,0,1,1,2,2,3,3,4,4,5,5,7,7,8,8,9,9,10,10,11,11,13,13,14,14,15,15,17,17,19,19,22,22,23,23,24,24,27,27,31,31,32,32,33,33],"right_children":[2,4,6,8,10,12,-1,14,16,18,20,22,-1,24,26,28,-1,30,-1,32,-1,-1,34,36,38,-1,-1,40,-1,-1,-1,42,44,46,-1,-1,-1,-1,-1,-1,-1,-1,-1,-1,-1,-1,-1],"split_conditions":[9.905E0,1.709E1,7.5E-2,4.05E-2,5.3499997E-1,2.55E0,1.1136043E-1,3.15E-1,1.7050001E-1,5.665E1,6.3050003E0,2.2625E1,7.307537E-2,2.25E-2,5E-3,3.05E-1,-1.3808793E-1,5.425E1,1.9979481E-1,2.484E1,-1.3484505E-1,-1.4943635E-1,1.3E-1,1.564E1,2.95E-2,2.8621966E-1,-9.770169E-2,8.85E-2,-1.1847927E-1,-1.4022897E-1,-3.5286015E-1,5.95E-1,6.5E-2,4.75E-1,1.7785782E-1,-1.3756458E-1,3.0423304E-2,2.1356319E-1,-4.3695718E-2,1.7950985E-1,3.6746633E-1,5.313432E-1,2.2699773E-1,1.7378871E-1,3.6195993E-1,-1.18747E-1,-1.7581146E-2],"split_indices":[4,14,135,50,4,1,0,15,50,0,20,14,0,50,22,2,0,0,0,14,0,0,12,14,50,0,0,50,0,0,0,12,51,15,0,0,0,0,0,0,0,0,0,0,0,0,0],"split_type":[0,0,0,0,0,0,0,0,0,0,0,0,0,0,0,0,0,0,0,0,0,0,0,0,0,0,0,0,0,0,0,0,0,0,0,0,0,0,0,0,0,0,0,0,0,0,0],"sum_hessian":[3.662641E2,3.008289E2,6.543521E1,9.9491394E1,2.0133748E2,6.442959E1,1.0056212E0,5.4025867E1,4.5465523E1,1.3553553E1,1.8778394E2,6.3423992E1,1.0055962E0,4.9616158E1,4.40971E0,3.6440765E1,9.024757E0,1.1527477E1,2.0260754E0,1.8139651E2,6.3874235E0,5.879929E1,4.6247025E0,3.266202E1,1.6954136E1,2.6486123E0,1.7610977E0,3.3711567E1,2.729198E0,8.946466E0,2.5810106E0,4.6083748E1,1.3531276E2,3.6193314E0,1.0053713E0,3.0935625E1,1.726398E0,2.5559845E0,1.4398151E1,1.883452E1,1.4877047E1,1.52474985E1,3.0836248E1,1.3150107E2,3.811689E0,2.609884E0,1.0094473E0],"tree_param":{"num_deleted":"0","num_feature":"255","num_nodes":"47","size_leaf_vector":"0"}},{"base_weights":[3.3229116E-1,-1.999473E-1,4.9378422E-1,-4.3995103E-1,1.5530118E-1,-5.52868E-1,5.8142775E-1,-4.5660046E-1,-3.8816433E-2,6.534241E-1,-1.7810401E-1,-4.6222743E-1,-1.0695081E0,6.4482385E-1,-6.0294498E-2,-4.7332057E-1,-1.9109038E-1,2.4541982E-1,-2.7900288E-1,8.2481426E-1,-3.3452174E-1,-3.9350212E-1,1.0238163E-1,-4.8022652E-1,-5.2511837E-2,6.7742264E-1,-3.6162004E-1,-9.1039026E-1,1.02065384E-1,-4.9285206E-1,-2.8417042E-1,1.1880759E-1,-3.573699E-1,4.6143547E-1,1.1335825E0,-4.5535138E-1,-1.8283977E-1,5.784544E-1,-4.156032E-1,1.7996094E0,6.4933646E-1,-4.8150626E-1,2.0078783E-1,-3.1473503E-1,-1.1508514E0,-4.2350283E-1,5.128266E-1,-4.1893843E-1,2.4505146E-1,6.146198E-1,-3.638047E-3,1.3000649E0,4.1745055E-1,2.0660225E-1,-3.642678E-1,9.462247E-1,-3.0414692E-1,5.760114E-1,2.0601876E0,-7.576798E-1,6.6271424E-1,-5.2704245E-1,2.618685E-1,7.511143E-1,-4.4192672E-1],"categories":[],"categories_nodes":[],"categories_segments":[],"categories_sizes":[],"default_left":[1,1,1,1,1,1,1,1,1,1,1,1,0,1,1,1,1,0,0,1,0,1,1,0,0,1,1,1,1,0,1,0,0,1,1,0,1,1,0,1,1,0,0,0,0,1,1,0,0,0,0,0,0,0,0,0,0,0,0,0,0,0,0,0,0],"id":65,"left_children":[1,3,5,7,9,11,13,15,17,19,21,23,-1,25,27,29,31,-1,-1,33,-1,35,37,-1,-1,39,41,43,45,-1,47,-1,-1,49,51,-1,53,55,-1,57,59,-1,-1,-1,-1,61,63,-1,-1,-1,-1,-1,-1,-1,-1,-1,-1,-1,-1,-1,-1,-1,-1,-1,-1],"loss_changes":[3.2590366E1,7.631825E0,2.6951996E1,3.3760166E-1,6.179289E0,5.800657E-1,1.0956612E1,1.3591766E-1,2.8783396E-1,2.7906747E0,1.4090114E0,1.3171482E-1,0E0,8.260864E0,3.549336E0,3.4661293E-2,2.8453833E-1,0E0,0E0,9.2931366E-1,0E0,8.6395025E-2,2.8627903E0,0E0,0E0,6.3013153E0,6.574719E-1,2.2743058E-1,4.950614E0,0E0,5.867999E-1,0E0,0E0,5.4602444E-1,2.0978832E-1,0E0,4.0212107E-1,2.2221746E0,0E0,4.7843552E-1,4.883705E0,0E0,0E0,0E0,0E0,8.5945773E-1,3.2347915E0,0E0,0E0,0E0,0E0,0E0,0E0,0E0,0E0,0E0,0E0,0E0,0E0,0E0,0E0,0E0,0E0,0E0,0E0],"parents":[2147483647,0,0,1,1,2,2,3,3,4,4,5,5,6,6,7,7,8,8,9,9,10,10,11,11,13,13,14,14,15,15,16,16,19,19,21,21,22,22,25,25,26,26,27,27,28,28,30,30,33,33,34,34,36,36,37,37,39,39,40,40,45,45,46,46],"right_children":[2,4,6,8,10,12,14,16,18,20,22,24,-1,26,28,30,32,-1,-1,34,-1,36,38,-1,-1,40,42,44,46,-1,48,-1,-1,50,52,-1,54,56,-1,58,60,-1,-1,-1,-1,62,64,-1,-1,-1,-1,-1,-1,-1,-1,-1,-1,-1,-1,-1,-1,-1,-1,-1,-1],"split_conditions":[3.685E0,2.08E-2,4.189E1,2.5149999E0,6.75E-2,3.23627E1,1.6499999E-1,9.649999E-3,5.04E0,1.145E0,3.4350002E-1,1.357E1,-3.2085243E-1,2.9805E1,5.5E-2,8.025E0,1.1E-2,7.3625945E-2,-8.3700866E-2,4.05E-2,-1.0035653E-1,2.5989997E-1,5.425E-1,-1.4406796E-1,-1.5753552E-2,6.84E0,1.605E0,1.584E1,4.9855E1,-1.4785562E-1,5.582E1,3.5642277E-2,-1.0721097E-1,3.98E-2,5.7E-2,-1.3660543E-1,2.805E-1,1.95E-1,-1.2468096E-1,8.764999E0,1.45E-1,-1.4445189E-1,6.023635E-2,-9.4420515E-2,-3.4525543E-1,1.4275E1,1.195E0,-1.2568153E-1,7.351544E-2,1.8438594E-1,-1.0914141E-3,3.900195E-1,1.2523517E-1,6.1980676E-2,-1.0928034E-1,2.8386742E-1,-9.124408E-2,1.7280343E-1,6.180563E-1,-2.2730395E-1,1.9881429E-1,-1.5811273E-1,7.856055E-2,2.253343E-1,-1.3257802E-1],"split_indices":[14,50,0,14,50,20,24,50,20,4,50,20,0,14,2,20,50,0,0,50,0,50,50,0,0,14,8,14,0,0,0,0,0,50,50,0,50,24,0,20,4,0,0,0,0,20,2,0,0,0,0,0,0,0,0,0,0,0,0,0,0,0,0,0,0],"split_type":[0,0,0,0,0,0,0,0,0,0,0,0,0,0,0,0,0,0,0,0,0,0,0,0,0,0,0,0,0,0,0,0,0,0,0,0,0,0,0,0,0,0,0,0,0,0,0,0,0,0,0,0,0,0,0,0,0,0,0,0,0,0,0,0,0],"sum_hessian":[3.770171E2,8.771E1,